<?xml version="1.0"?>
<opencv_storage>
<cascade>
  <stageType>BOOST</stageType>
  <featureType>HAAR</featureType>
  <height>80</height>
  <width>35</width>
  <stageParams>
    <boostType>GAB</boostType>
    <minHitRate>9.9900001287460327e-01</minHitRate>
    <maxFalseAlarm>5.0000000000000000e-01</maxFalseAlarm>
    <weightTrimRate>9.4999999999999996e-01</weightTrimRate>
    <maxDepth>1</maxDepth>
    <maxWeakCount>100</maxWeakCount></stageParams>
  <featureParams>
    <maxCatCount>0</maxCatCount>
    <featSize>1</featSize>
    <mode>ALL</mode></featureParams>
  <stageNum>20</stageNum>
  <stages>
    <!-- stage 0 -->
    <_>
      <maxWeakCount>2</maxWeakCount>
      <stageThreshold>-2.0270323380827904e-02</stageThreshold>
      <weakClassifiers>
        <_>
          <internalNodes>
            0 -1 47 -7.3329485021531582e-03</internalNodes>
          <leafValues>
            9.8213845491409302e-01 -9.5495498180389404e-01</leafValues></_>
        <_>
          <internalNodes>
            0 -1 53 -2.5714165531098843e-03</internalNodes>
          <leafValues>
            9.3468463420867920e-01 -7.7467018365859985e-01</leafValues></_></weakClassifiers></_>
    <!-- stage 1 -->
    <_>
      <maxWeakCount>4</maxWeakCount>
      <stageThreshold>1.4864949882030487e-01</stageThreshold>
      <weakClassifiers>
        <_>
          <internalNodes>
            0 -1 23 4.1199615225195885e-03</internalNodes>
          <leafValues>
            -9.2481201887130737e-01 9.3932038545608521e-01</leafValues></_>
        <_>
          <internalNodes>
            0 -1 18 -2.0323323551565409e-03</internalNodes>
          <leafValues>
            8.0494970083236694e-01 -9.6181935071945190e-01</leafValues></_>
        <_>
          <internalNodes>
            0 -1 21 2.9988341033458710e-02</internalNodes>
          <leafValues>
            -4.8816537857055664e-01 8.8539344072341919e-01</leafValues></_>
        <_>
          <internalNodes>
            0 -1 69 4.9048233777284622e-03</internalNodes>
          <leafValues>
            -6.3563966751098633e-01 6.5931379795074463e-01</leafValues></_></weakClassifiers></_>
    <!-- stage 2 -->
    <_>
      <maxWeakCount>4</maxWeakCount>
      <stageThreshold>3.1495890021324158e-01</stageThreshold>
      <weakClassifiers>
        <_>
          <internalNodes>
            0 -1 52 5.7565257884562016e-04</internalNodes>
          <leafValues>
            9.4280129671096802e-01 -6.7901235818862915e-01</leafValues></_>
        <_>
          <internalNodes>
            0 -1 31 -2.2399980574846268e-02</internalNodes>
          <leafValues>
            7.8620803356170654e-01 -8.8143616914749146e-01</leafValues></_>
        <_>
          <internalNodes>
            0 -1 66 1.0679017752408981e-02</internalNodes>
          <leafValues>
            -4.7940725088119507e-01 8.1200200319290161e-01</leafValues></_>
        <_>
          <internalNodes>
            0 -1 8 7.8013580059632659e-04</internalNodes>
          <leafValues>
            -5.7071721553802490e-01 7.3300099372863770e-01</leafValues></_></weakClassifiers></_>
    <!-- stage 3 -->
    <_>
      <maxWeakCount>3</maxWeakCount>
      <stageThreshold>5.6485497951507568e-01</stageThreshold>
      <weakClassifiers>
        <_>
          <internalNodes>
            0 -1 13 -7.5993664562702179e-02</internalNodes>
          <leafValues>
            -1. 9.3751513957977295e-01</leafValues></_>
        <_>
          <internalNodes>
            0 -1 49 -7.7888806117698550e-05</internalNodes>
          <leafValues>
            -9.2423564195632935e-01 8.3470767736434937e-01</leafValues></_>
        <_>
          <internalNodes>
            0 -1 27 3.8640794809907675e-04</internalNodes>
          <leafValues>
            5.5157548189163208e-01 -9.1766560077667236e-01</leafValues></_></weakClassifiers></_>
    <!-- stage 4 -->
    <_>
      <maxWeakCount>3</maxWeakCount>
      <stageThreshold>6.0461461544036865e-01</stageThreshold>
      <weakClassifiers>
        <_>
          <internalNodes>
            0 -1 79 4.1310125379823148e-04</internalNodes>
          <leafValues>
            9.3235081434249878e-01 -9.8245614767074585e-01</leafValues></_>
        <_>
          <internalNodes>
            0 -1 79 -7.4487080564722419e-04</internalNodes>
          <leafValues>
            -7.8724437952041626e-01 8.2658219337463379e-01</leafValues></_>
        <_>
          <internalNodes>
            0 -1 48 1.8990802345797420e-03</internalNodes>
          <leafValues>
            4.5950821042060852e-01 -9.8272669315338135e-01</leafValues></_></weakClassifiers></_>
    <!-- stage 5 -->
    <_>
      <maxWeakCount>3</maxWeakCount>
      <stageThreshold>6.4703857898712158e-01</stageThreshold>
      <weakClassifiers>
        <_>
          <internalNodes>
            0 -1 17 -8.2754658069461584e-04</internalNodes>
          <leafValues>
            9.3784898519515991e-01 -8.6567163467407227e-01</leafValues></_>
        <_>
          <internalNodes>
            0 -1 32 3.8522650720551610e-04</internalNodes>
          <leafValues>
            7.7242350578308105e-01 -9.7806012630462646e-01</leafValues></_>
        <_>
          <internalNodes>
            0 -1 73 -7.7682925621047616e-04</internalNodes>
          <leafValues>
            -6.1623454093933105e-01 7.4028670787811279e-01</leafValues></_></weakClassifiers></_>
    <!-- stage 6 -->
    <_>
      <maxWeakCount>1</maxWeakCount>
      <stageThreshold>9.3890911340713501e-01</stageThreshold>
      <weakClassifiers>
        <_>
          <internalNodes>
            0 -1 38 -1.6381718218326569e-02</internalNodes>
          <leafValues>
            -9.8437500000000000e-01 9.3890911340713501e-01</leafValues></_></weakClassifiers></_>
    <!-- stage 7 -->
    <_>
      <maxWeakCount>3</maxWeakCount>
      <stageThreshold>6.2305253744125366e-01</stageThreshold>
      <weakClassifiers>
        <_>
          <internalNodes>
            0 -1 34 6.3397893682122231e-03</internalNodes>
          <leafValues>
            9.3138438463211060e-01 -9.4736844301223755e-01</leafValues></_>
        <_>
          <internalNodes>
            0 -1 45 9.4701230409555137e-05</internalNodes>
          <leafValues>
            7.9773294925689697e-01 -9.6192824840545654e-01</leafValues></_>
        <_>
          <internalNodes>
            0 -1 9 2.4961889721453190e-04</internalNodes>
          <leafValues>
            -6.0257440805435181e-01 6.5359634160995483e-01</leafValues></_></weakClassifiers></_>
    <!-- stage 8 -->
    <_>
      <maxWeakCount>4</maxWeakCount>
      <stageThreshold>1.7957608401775360e-01</stageThreshold>
      <weakClassifiers>
        <_>
          <internalNodes>
            0 -1 75 -1.4915877254679799e-03</internalNodes>
          <leafValues>
            -9.4545453786849976e-01 9.2951965332031250e-01</leafValues></_>
        <_>
          <internalNodes>
            0 -1 59 2.8932202258147299e-04</internalNodes>
          <leafValues>
            8.3838576078414917e-01 -6.0362797975540161e-01</leafValues></_>
        <_>
          <internalNodes>
            0 -1 30 3.7265213904902339e-04</internalNodes>
          <leafValues>
            5.3207880258560181e-01 -9.1195923089981079e-01</leafValues></_>
        <_>
          <internalNodes>
            0 -1 10 5.1270239055156708e-04</internalNodes>
          <leafValues>
            -6.7637008428573608e-01 6.0265100002288818e-01</leafValues></_></weakClassifiers></_>
    <!-- stage 9 -->
    <_>
      <maxWeakCount>7</maxWeakCount>
      <stageThreshold>-5.4302322864532471e-01</stageThreshold>
      <weakClassifiers>
        <_>
          <internalNodes>
            0 -1 56 -5.5591360433027148e-04</internalNodes>
          <leafValues>
            -8.4466022253036499e-01 9.2385542392730713e-01</leafValues></_>
        <_>
          <internalNodes>
            0 -1 71 -2.0233129616826773e-03</internalNodes>
          <leafValues>
            -7.2045743465423584e-01 7.5726985931396484e-01</leafValues></_>
        <_>
          <internalNodes>
            0 -1 26 1.3219855725765228e-02</internalNodes>
          <leafValues>
            -6.5609610080718994e-01 6.3818341493606567e-01</leafValues></_>
        <_>
          <internalNodes>
            0 -1 2 3.5143168643116951e-03</internalNodes>
          <leafValues>
            -5.3095406293869019e-01 7.1048390865325928e-01</leafValues></_>
        <_>
          <internalNodes>
            0 -1 81 -4.6108409878797829e-04</internalNodes>
          <leafValues>
            -8.0190730094909668e-01 4.4478684663772583e-01</leafValues></_>
        <_>
          <internalNodes>
            0 -1 70 -6.1647584661841393e-03</internalNodes>
          <leafValues>
            8.2418912649154663e-01 -4.4111317396163940e-01</leafValues></_>
        <_>
          <internalNodes>
            0 -1 58 1.0101294144988060e-02</internalNodes>
          <leafValues>
            -5.3755867481231689e-01 6.4658743143081665e-01</leafValues></_></weakClassifiers></_>
    <!-- stage 10 -->
    <_>
      <maxWeakCount>3</maxWeakCount>
      <stageThreshold>5.9168726205825806e-01</stageThreshold>
      <weakClassifiers>
        <_>
          <internalNodes>
            0 -1 37 4.1851634159684181e-04</internalNodes>
          <leafValues>
            9.2905408143997192e-01 -9.4495415687561035e-01</leafValues></_>
        <_>
          <internalNodes>
            0 -1 28 2.6975738001056015e-04</internalNodes>
          <leafValues>
            7.9030531644821167e-01 -9.1710907220840454e-01</leafValues></_>
        <_>
          <internalNodes>
            0 -1 77 6.6486856667324901e-05</internalNodes>
          <leafValues>
            -4.9033704400062561e-01 7.4633610248565674e-01</leafValues></_></weakClassifiers></_>
    <!-- stage 11 -->
    <_>
      <maxWeakCount>7</maxWeakCount>
      <stageThreshold>1.1124107986688614e-02</stageThreshold>
      <weakClassifiers>
        <_>
          <internalNodes>
            0 -1 46 1.3768398202955723e-03</internalNodes>
          <leafValues>
            9.2211538553237915e-01 -9.5698922872543335e-01</leafValues></_>
        <_>
          <internalNodes>
            0 -1 36 -3.3958829939365387e-02</internalNodes>
          <leafValues>
            -7.7028501033782959e-01 7.6278591156005859e-01</leafValues></_>
        <_>
          <internalNodes>
            0 -1 12 1.9650952890515327e-04</internalNodes>
          <leafValues>
            -5.8746361732482910e-01 6.4733052253723145e-01</leafValues></_>
        <_>
          <internalNodes>
            0 -1 57 -2.4255956523120403e-03</internalNodes>
          <leafValues>
            6.3302487134933472e-01 -5.8607679605484009e-01</leafValues></_>
        <_>
          <internalNodes>
            0 -1 50 1.0177224874496460e-02</internalNodes>
          <leafValues>
            -4.0655520558357239e-01 8.8304066658020020e-01</leafValues></_>
        <_>
          <internalNodes>
            0 -1 40 3.4058946766890585e-05</internalNodes>
          <leafValues>
            6.0511070489883423e-01 -5.4665482044219971e-01</leafValues></_>
        <_>
          <internalNodes>
            0 -1 61 -7.7892425470054150e-03</internalNodes>
          <leafValues>
            8.4348058700561523e-01 -3.8482299447059631e-01</leafValues></_></weakClassifiers></_>
    <!-- stage 12 -->
    <_>
      <maxWeakCount>4</maxWeakCount>
      <stageThreshold>1.8253630399703979e-01</stageThreshold>
      <weakClassifiers>
        <_>
          <internalNodes>
            0 -1 24 -1.4380237553268671e-04</internalNodes>
          <leafValues>
            -9.5744681358337402e-01 9.2257755994796753e-01</leafValues></_>
        <_>
          <internalNodes>
            0 -1 20 -2.7569776773452759e-01</internalNodes>
          <leafValues>
            -9.0823817253112793e-01 7.4530762434005737e-01</leafValues></_>
        <_>
          <internalNodes>
            0 -1 6 9.3524949625134468e-04</internalNodes>
          <leafValues>
            -5.5125188827514648e-01 6.3943958282470703e-01</leafValues></_>
        <_>
          <internalNodes>
            0 -1 1 -1.0876623913645744e-02</internalNodes>
          <leafValues>
            7.1944880485534668e-01 -4.9940910935401917e-01</leafValues></_></weakClassifiers></_>
    <!-- stage 13 -->
    <_>
      <maxWeakCount>8</maxWeakCount>
      <stageThreshold>-3.3807480335235596e-01</stageThreshold>
      <weakClassifiers>
        <_>
          <internalNodes>
            0 -1 41 2.7279870118945837e-04</internalNodes>
          <leafValues>
            9.1606712341308594e-01 -8.7951809167861938e-01</leafValues></_>
        <_>
          <internalNodes>
            0 -1 8 2.6245246408507228e-04</internalNodes>
          <leafValues>
            -2.0934632420539856e-01 8.2930868864059448e-01</leafValues></_>
        <_>
          <internalNodes>
            0 -1 25 -2.5015398859977722e-03</internalNodes>
          <leafValues>
            5.6261384487152100e-01 -6.6898584365844727e-01</leafValues></_>
        <_>
          <internalNodes>
            0 -1 68 8.5131991654634476e-03</internalNodes>
          <leafValues>
            -4.5837679505348206e-01 7.7937328815460205e-01</leafValues></_>
        <_>
          <internalNodes>
            0 -1 39 3.8375629810616374e-04</internalNodes>
          <leafValues>
            5.2674871683120728e-01 -6.3385361433029175e-01</leafValues></_>
        <_>
          <internalNodes>
            0 -1 76 -6.0460660606622696e-03</internalNodes>
          <leafValues>
            8.7426424026489258e-01 -3.6716797947883606e-01</leafValues></_>
        <_>
          <internalNodes>
            0 -1 11 5.2106159273535013e-04</internalNodes>
          <leafValues>
            -3.7782475352287292e-01 7.6665240526199341e-01</leafValues></_>
        <_>
          <internalNodes>
            0 -1 54 -1.3936043251305819e-04</internalNodes>
          <leafValues>
            -8.0884128808975220e-01 3.9258721470832825e-01</leafValues></_></weakClassifiers></_>
    <!-- stage 14 -->
    <_>
      <maxWeakCount>7</maxWeakCount>
      <stageThreshold>-9.6809439361095428e-02</stageThreshold>
      <weakClassifiers>
        <_>
          <internalNodes>
            0 -1 44 -5.2348180906847119e-04</internalNodes>
          <leafValues>
            -9.4366198778152466e-01 9.3654638528823853e-01</leafValues></_>
        <_>
          <internalNodes>
            0 -1 15 -7.7064083889126778e-03</internalNodes>
          <leafValues>
            8.3498150110244751e-01 -6.5902304649353027e-01</leafValues></_>
        <_>
          <internalNodes>
            0 -1 64 1.6572410240769386e-03</internalNodes>
          <leafValues>
            6.2656295299530029e-01 -7.2358405590057373e-01</leafValues></_>
        <_>
          <internalNodes>
            0 -1 3 1.5947715146467090e-03</internalNodes>
          <leafValues>
            -5.5754715204238892e-01 7.2798150777816772e-01</leafValues></_>
        <_>
          <internalNodes>
            0 -1 33 1.6010215040296316e-04</internalNodes>
          <leafValues>
            6.4542806148529053e-01 -5.7621383666992188e-01</leafValues></_>
        <_>
          <internalNodes>
            0 -1 74 4.7337773139588535e-05</internalNodes>
          <leafValues>
            4.8716115951538086e-01 -6.7105084657669067e-01</leafValues></_>
        <_>
          <internalNodes>
            0 -1 51 1.9663062412291765e-03</internalNodes>
          <leafValues>
            -4.9815347790718079e-01 7.6724374294281006e-01</leafValues></_></weakClassifiers></_>
    <!-- stage 15 -->
    <_>
      <maxWeakCount>6</maxWeakCount>
      <stageThreshold>2.3386265337467194e-01</stageThreshold>
      <weakClassifiers>
        <_>
          <internalNodes>
            0 -1 19 -8.8861270342022181e-05</internalNodes>
          <leafValues>
            -9.4029849767684937e-01 9.3467217683792114e-01</leafValues></_>
        <_>
          <internalNodes>
            0 -1 42 2.6973383501172066e-04</internalNodes>
          <leafValues>
            7.5769561529159546e-01 -9.2289489507675171e-01</leafValues></_>
        <_>
          <internalNodes>
            0 -1 9 4.7398504102602601e-04</internalNodes>
          <leafValues>
            -5.3101599216461182e-01 6.8541067838668823e-01</leafValues></_>
        <_>
          <internalNodes>
            0 -1 65 -7.4440380558371544e-03</internalNodes>
          <leafValues>
            7.8759056329727173e-01 -4.0959560871124268e-01</leafValues></_>
        <_>
          <internalNodes>
            0 -1 55 -1.1442769318819046e-02</internalNodes>
          <leafValues>
            7.6337444782257080e-01 -3.9737749099731445e-01</leafValues></_>
        <_>
          <internalNodes>
            0 -1 14 -6.6674994304776192e-03</internalNodes>
          <leafValues>
            -9.4230335950851440e-01 3.4364783763885498e-01</leafValues></_></weakClassifiers></_>
    <!-- stage 16 -->
    <_>
      <maxWeakCount>4</maxWeakCount>
      <stageThreshold>2.6803153753280640e-01</stageThreshold>
      <weakClassifiers>
        <_>
          <internalNodes>
            0 -1 16 -9.9951867014169693e-04</internalNodes>
          <leafValues>
            -1. 9.3096792697906494e-01</leafValues></_>
        <_>
          <internalNodes>
            0 -1 62 -1.5443617105484009e-01</internalNodes>
          <leafValues>
            -8.8883656263351440e-01 7.7829027175903320e-01</leafValues></_>
        <_>
          <internalNodes>
            0 -1 5 1.1774110607802868e-03</internalNodes>
          <leafValues>
            -5.1561182737350464e-01 8.1400561332702637e-01</leafValues></_>
        <_>
          <internalNodes>
            0 -1 67 8.4350444376468658e-03</internalNodes>
          <leafValues>
            -3.8829961419105530e-01 7.4151200056076050e-01</leafValues></_></weakClassifiers></_>
    <!-- stage 17 -->
    <_>
      <maxWeakCount>6</maxWeakCount>
      <stageThreshold>3.6565330624580383e-01</stageThreshold>
      <weakClassifiers>
        <_>
          <internalNodes>
            0 -1 80 -6.4569158712401986e-04</internalNodes>
          <leafValues>
            -9.6774190664291382e-01 9.3281775712966919e-01</leafValues></_>
        <_>
          <internalNodes>
            0 -1 83 -1.6368832439184189e-04</internalNodes>
          <leafValues>
            9.5556986331939697e-01 2.9981389641761780e-02</leafValues></_>
        <_>
          <internalNodes>
            0 -1 43 1.0085735470056534e-02</internalNodes>
          <leafValues>
            -2.3734782636165619e-01 8.0945742130279541e-01</leafValues></_>
        <_>
          <internalNodes>
            0 -1 7 1.8819922115653753e-04</internalNodes>
          <leafValues>
            -3.9995175600051880e-01 6.7963999509811401e-01</leafValues></_>
        <_>
          <internalNodes>
            0 -1 72 6.3366200774908066e-03</internalNodes>
          <leafValues>
            -4.7214153409004211e-01 6.3205605745315552e-01</leafValues></_>
        <_>
          <internalNodes>
            0 -1 22 6.1906976625323296e-03</internalNodes>
          <leafValues>
            -4.1329321265220642e-01 7.0962858200073242e-01</leafValues></_></weakClassifiers></_>
    <!-- stage 18 -->
    <_>
      <maxWeakCount>4</maxWeakCount>
      <stageThreshold>6.9419991970062256e-01</stageThreshold>
      <weakClassifiers>
        <_>
          <internalNodes>
            0 -1 60 2.7951420634053648e-04</internalNodes>
          <leafValues>
            9.3837940692901611e-01 -8.7179487943649292e-01</leafValues></_>
        <_>
          <internalNodes>
            0 -1 35 -3.1577055342495441e-03</internalNodes>
          <leafValues>
            8.5955566167831421e-01 -4.5777273178100586e-01</leafValues></_>
        <_>
          <internalNodes>
            0 -1 63 1.4059569686651230e-02</internalNodes>
          <leafValues>
            6.7084920406341553e-01 -6.2747693061828613e-01</leafValues></_>
        <_>
          <internalNodes>
            0 -1 82 -3.5193658550269902e-04</internalNodes>
          <leafValues>
            8.4780442714691162e-01 -4.5725595951080322e-01</leafValues></_></weakClassifiers></_>
    <!-- stage 19 -->
    <_>
      <maxWeakCount>4</maxWeakCount>
      <stageThreshold>2.8998038172721863e-01</stageThreshold>
      <weakClassifiers>
        <_>
          <internalNodes>
            0 -1 78 5.1276671001687646e-04</internalNodes>
          <leafValues>
            9.3606197834014893e-01 -9.1549295186996460e-01</leafValues></_>
        <_>
          <internalNodes>
            0 -1 0 2.3237115144729614e-01</internalNodes>
          <leafValues>
            7.8092640638351440e-01 -9.4199830293655396e-01</leafValues></_>
        <_>
          <internalNodes>
            0 -1 29 6.3495332142338157e-05</internalNodes>
          <leafValues>
            5.6072604656219482e-01 -8.5620892047882080e-01</leafValues></_>
        <_>
          <internalNodes>
            0 -1 4 1.9665202125906944e-03</internalNodes>
          <leafValues>
            -5.7079911231994629e-01 6.9807368516921997e-01</leafValues></_></weakClassifiers></_></stages>
  <features>
    <_>
      <rects>
        <_>
          0 0 24 40 -1.</_>
        <_>
          0 20 24 20 2.</_></rects>
      <tilted>0</tilted></_>
    <_>
      <rects>
        <_>
          0 0 31 12 -1.</_>
        <_>
          0 6 31 6 2.</_></rects>
      <tilted>0</tilted></_>
    <_>
      <rects>
        <_>
          0 23 8 30 -1.</_>
        <_>
          4 23 4 30 2.</_></rects>
      <tilted>0</tilted></_>
    <_>
      <rects>
        <_>
          0 32 3 21 -1.</_>
        <_>
          1 39 1 7 9.</_></rects>
      <tilted>0</tilted></_>
    <_>
      <rects>
        <_>
          0 32 8 16 -1.</_>
        <_>
          2 32 4 16 2.</_></rects>
      <tilted>0</tilted></_>
    <_>
      <rects>
        <_>
          0 33 8 17 -1.</_>
        <_>
          2 33 4 17 2.</_></rects>
      <tilted>0</tilted></_>
    <_>
      <rects>
        <_>
          0 33 8 15 -1.</_>
        <_>
          4 33 4 15 2.</_></rects>
      <tilted>0</tilted></_>
    <_>
      <rects>
        <_>
          0 34 1 12 -1.</_>
        <_>
          0 38 1 4 3.</_></rects>
      <tilted>0</tilted></_>
    <_>
      <rects>
        <_>
          0 34 2 13 -1.</_>
        <_>
          1 34 1 13 2.</_></rects>
      <tilted>0</tilted></_>
    <_>
      <rects>
        <_>
          0 34 4 13 -1.</_>
        <_>
          1 34 2 13 2.</_></rects>
      <tilted>0</tilted></_>
    <_>
      <rects>
        <_>
          0 34 6 15 -1.</_>
        <_>
          2 34 2 15 3.</_></rects>
      <tilted>0</tilted></_>
    <_>
      <rects>
        <_>
          0 35 1 12 -1.</_>
        <_>
          0 39 1 4 3.</_></rects>
      <tilted>0</tilted></_>
    <_>
      <rects>
        <_>
          0 35 3 11 -1.</_>
        <_>
          1 35 1 11 3.</_></rects>
      <tilted>0</tilted></_>
    <_>
      <rects>
        <_>
          1 26 26 22 -1.</_>
        <_>
          14 26 13 22 2.</_></rects>
      <tilted>0</tilted></_>
    <_>
      <rects>
        <_>
          1 34 32 2 -1.</_>
        <_>
          9 34 16 2 2.</_></rects>
      <tilted>0</tilted></_>
    <_>
      <rects>
        <_>
          2 32 22 6 -1.</_>
        <_>
          13 32 11 6 2.</_></rects>
      <tilted>0</tilted></_>
    <_>
      <rects>
        <_>
          2 35 6 13 -1.</_>
        <_>
          5 35 3 13 2.</_></rects>
      <tilted>0</tilted></_>
    <_>
      <rects>
        <_>
          2 35 22 1 -1.</_>
        <_>
          13 35 11 1 2.</_></rects>
      <tilted>0</tilted></_>
    <_>
      <rects>
        <_>
          2 36 32 2 -1.</_>
        <_>
          10 36 16 2 2.</_></rects>
      <tilted>0</tilted></_>
    <_>
      <rects>
        <_>
          2 43 3 2 -1.</_>
        <_>
          3 43 1 2 3.</_></rects>
      <tilted>0</tilted></_>
    <_>
      <rects>
        <_>
          3 6 30 57 -1.</_>
        <_>
          13 25 10 19 9.</_></rects>
      <tilted>0</tilted></_>
    <_>
      <rects>
        <_>
          3 8 23 24 -1.</_>
        <_>
          3 20 23 12 2.</_></rects>
      <tilted>0</tilted></_>
    <_>
      <rects>
        <_>
          3 11 12 36 -1.</_>
        <_>
          3 11 6 18 2.</_>
        <_>
          9 29 6 18 2.</_></rects>
      <tilted>0</tilted></_>
    <_>
      <rects>
        <_>
          3 36 18 9 -1.</_>
        <_>
          9 36 6 9 3.</_></rects>
      <tilted>0</tilted></_>
    <_>
      <rects>
        <_>
          3 43 4 3 -1.</_>
        <_>
          4 43 2 3 2.</_></rects>
      <tilted>0</tilted></_>
    <_>
      <rects>
        <_>
          3 48 28 2 -1.</_>
        <_>
          10 48 14 2 2.</_></rects>
      <tilted>0</tilted></_>
    <_>
      <rects>
        <_>
          4 8 26 39 -1.</_>
        <_>
          4 21 26 13 3.</_></rects>
      <tilted>0</tilted></_>
    <_>
      <rects>
        <_>
          4 37 26 3 -1.</_>
        <_>
          4 38 26 1 3.</_></rects>
      <tilted>0</tilted></_>
    <_>
      <rects>
        <_>
          4 42 6 2 -1.</_>
        <_>
          4 42 6 1 2.</_></rects>
      <tilted>1</tilted></_>
    <_>
      <rects>
        <_>
          4 43 3 4 -1.</_>
        <_>
          5 43 1 4 3.</_></rects>
      <tilted>0</tilted></_>
    <_>
      <rects>
        <_>
          4 46 21 4 -1.</_>
        <_>
          4 47 21 2 2.</_></rects>
      <tilted>0</tilted></_>
    <_>
      <rects>
        <_>
          5 28 28 25 -1.</_>
        <_>
          12 28 14 25 2.</_></rects>
      <tilted>0</tilted></_>
    <_>
      <rects>
        <_>
          5 35 6 3 -1.</_>
        <_>
          7 36 2 1 9.</_></rects>
      <tilted>0</tilted></_>
    <_>
      <rects>
        <_>
          5 37 15 8 -1.</_>
        <_>
          5 39 15 4 2.</_></rects>
      <tilted>0</tilted></_>
    <_>
      <rects>
        <_>
          6 29 26 18 -1.</_>
        <_>
          6 35 26 6 3.</_></rects>
      <tilted>0</tilted></_>
    <_>
      <rects>
        <_>
          6 35 24 2 -1.</_>
        <_>
          12 35 12 2 2.</_></rects>
      <tilted>0</tilted></_>
    <_>
      <rects>
        <_>
          6 36 27 30 -1.</_>
        <_>
          6 46 27 10 3.</_></rects>
      <tilted>0</tilted></_>
    <_>
      <rects>
        <_>
          6 47 15 4 -1.</_>
        <_>
          6 48 15 2 2.</_></rects>
      <tilted>0</tilted></_>
    <_>
      <rects>
        <_>
          7 24 24 30 -1.</_>
        <_>
          7 34 24 10 3.</_></rects>
      <tilted>0</tilted></_>
    <_>
      <rects>
        <_>
          7 25 10 12 -1.</_>
        <_>
          7 28 10 6 2.</_></rects>
      <tilted>0</tilted></_>
    <_>
      <rects>
        <_>
          7 29 3 4 -1.</_>
        <_>
          7 31 3 2 2.</_></rects>
      <tilted>0</tilted></_>
    <_>
      <rects>
        <_>
          7 33 20 2 -1.</_>
        <_>
          7 34 20 1 2.</_></rects>
      <tilted>0</tilted></_>
    <_>
      <rects>
        <_>
          7 36 15 3 -1.</_>
        <_>
          7 37 15 1 3.</_></rects>
      <tilted>0</tilted></_>
    <_>
      <rects>
        <_>
          8 6 14 30 -1.</_>
        <_>
          8 16 14 10 3.</_></rects>
      <tilted>0</tilted></_>
    <_>
      <rects>
        <_>
          8 41 14 4 -1.</_>
        <_>
          8 42 14 2 2.</_></rects>
      <tilted>0</tilted></_>
    <_>
      <rects>
        <_>
          8 46 2 1 -1.</_>
        <_>
          8 46 1 1 2.</_></rects>
      <tilted>1</tilted></_>
    <_>
      <rects>
        <_>
          9 30 21 6 -1.</_>
        <_>
          9 33 21 3 2.</_></rects>
      <tilted>0</tilted></_>
    <_>
      <rects>
        <_>
          9 33 20 9 -1.</_>
        <_>
          14 33 10 9 2.</_></rects>
      <tilted>0</tilted></_>
    <_>
      <rects>
        <_>
          9 33 25 9 -1.</_>
        <_>
          9 36 25 3 3.</_></rects>
      <tilted>0</tilted></_>
    <_>
      <rects>
        <_>
          10 40 4 1 -1.</_>
        <_>
          12 40 2 1 2.</_></rects>
      <tilted>0</tilted></_>
    <_>
      <rects>
        <_>
          10 52 15 26 -1.</_>
        <_>
          15 52 5 26 3.</_></rects>
      <tilted>0</tilted></_>
    <_>
      <rects>
        <_>
          10 63 21 6 -1.</_>
        <_>
          17 65 7 2 9.</_></rects>
      <tilted>0</tilted></_>
    <_>
      <rects>
        <_>
          11 34 1 8 -1.</_>
        <_>
          11 34 1 4 2.</_></rects>
      <tilted>1</tilted></_>
    <_>
      <rects>
        <_>
          11 37 16 3 -1.</_>
        <_>
          15 37 8 3 2.</_></rects>
      <tilted>0</tilted></_>
    <_>
      <rects>
        <_>
          11 56 12 2 -1.</_>
        <_>
          11 57 12 1 2.</_></rects>
      <tilted>0</tilted></_>
    <_>
      <rects>
        <_>
          12 3 10 20 -1.</_>
        <_>
          12 8 10 10 2.</_></rects>
      <tilted>0</tilted></_>
    <_>
      <rects>
        <_>
          12 33 22 3 -1.</_>
        <_>
          12 34 22 1 3.</_></rects>
      <tilted>0</tilted></_>
    <_>
      <rects>
        <_>
          12 39 12 1 -1.</_>
        <_>
          16 39 4 1 3.</_></rects>
      <tilted>0</tilted></_>
    <_>
      <rects>
        <_>
          12 44 12 30 -1.</_>
        <_>
          16 54 4 10 9.</_></rects>
      <tilted>0</tilted></_>
    <_>
      <rects>
        <_>
          14 27 12 4 -1.</_>
        <_>
          14 29 12 2 2.</_></rects>
      <tilted>0</tilted></_>
    <_>
      <rects>
        <_>
          14 35 9 4 -1.</_>
        <_>
          14 36 9 2 2.</_></rects>
      <tilted>0</tilted></_>
    <_>
      <rects>
        <_>
          15 4 7 16 -1.</_>
        <_>
          15 8 7 8 2.</_></rects>
      <tilted>0</tilted></_>
    <_>
      <rects>
        <_>
          15 23 19 52 -1.</_>
        <_>
          15 49 19 26 2.</_></rects>
      <tilted>0</tilted></_>
    <_>
      <rects>
        <_>
          16 1 5 75 -1.</_>
        <_>
          16 26 5 25 3.</_></rects>
      <tilted>0</tilted></_>
    <_>
      <rects>
        <_>
          16 25 14 28 -1.</_>
        <_>
          16 32 14 14 2.</_></rects>
      <tilted>0</tilted></_>
    <_>
      <rects>
        <_>
          16 27 4 27 -1.</_>
        <_>
          16 36 4 9 3.</_></rects>
      <tilted>0</tilted></_>
    <_>
      <rects>
        <_>
          16 38 18 7 -1.</_>
        <_>
          22 38 6 7 3.</_></rects>
      <tilted>0</tilted></_>
    <_>
      <rects>
        <_>
          17 6 2 39 -1.</_>
        <_>
          17 19 2 13 3.</_></rects>
      <tilted>0</tilted></_>
    <_>
      <rects>
        <_>
          17 34 3 26 -1.</_>
        <_>
          17 47 3 13 2.</_></rects>
      <tilted>0</tilted></_>
    <_>
      <rects>
        <_>
          17 35 12 9 -1.</_>
        <_>
          21 38 4 3 9.</_></rects>
      <tilted>0</tilted></_>
    <_>
      <rects>
        <_>
          21 0 6 16 -1.</_>
        <_>
          21 8 6 8 2.</_></rects>
      <tilted>0</tilted></_>
    <_>
      <rects>
        <_>
          22 23 6 12 -1.</_>
        <_>
          22 23 3 12 2.</_></rects>
      <tilted>1</tilted></_>
    <_>
      <rects>
        <_>
          24 11 2 54 -1.</_>
        <_>
          24 29 2 18 3.</_></rects>
      <tilted>0</tilted></_>
    <_>
      <rects>
        <_>
          24 35 6 3 -1.</_>
        <_>
          24 35 3 3 2.</_></rects>
      <tilted>1</tilted></_>
    <_>
      <rects>
        <_>
          25 43 4 4 -1.</_>
        <_>
          25 44 4 2 2.</_></rects>
      <tilted>0</tilted></_>
    <_>
      <rects>
        <_>
          26 41 6 6 -1.</_>
        <_>
          28 43 2 2 9.</_></rects>
      <tilted>0</tilted></_>
    <_>
      <rects>
        <_>
          27 4 8 34 -1.</_>
        <_>
          27 4 4 17 2.</_>
        <_>
          31 21 4 17 2.</_></rects>
      <tilted>0</tilted></_>
    <_>
      <rects>
        <_>
          27 30 8 19 -1.</_>
        <_>
          29 30 4 19 2.</_></rects>
      <tilted>0</tilted></_>
    <_>
      <rects>
        <_>
          28 35 4 11 -1.</_>
        <_>
          30 35 2 11 2.</_></rects>
      <tilted>0</tilted></_>
    <_>
      <rects>
        <_>
          28 39 6 2 -1.</_>
        <_>
          30 41 2 2 3.</_></rects>
      <tilted>1</tilted></_>
    <_>
      <rects>
        <_>
          29 33 4 14 -1.</_>
        <_>
          31 33 2 14 2.</_></rects>
      <tilted>0</tilted></_>
    <_>
      <rects>
        <_>
          30 31 2 24 -1.</_>
        <_>
          30 31 1 24 2.</_></rects>
      <tilted>1</tilted></_>
    <_>
      <rects>
        <_>
          33 10 2 40 -1.</_>
        <_>
          33 10 1 20 2.</_>
        <_>
          34 30 1 20 2.</_></rects>
      <tilted>0</tilted></_>
    <_>
      <rects>
        <_>
          33 32 2 18 -1.</_>
        <_>
          34 32 1 18 2.</_></rects>
      <tilted>0</tilted></_></features></cascade>
</opencv_storage>
