<?xml version="1.0"?>
<opencv_storage>
<cascade>
  <stageType>BOOST</stageType>
  <featureType>HAAR</featureType>
  <height>80</height>
  <width>35</width>
  <stageParams>
    <boostType>GAB</boostType>
    <minHitRate>9.9900001287460327e-01</minHitRate>
    <maxFalseAlarm>5.0000000000000000e-01</maxFalseAlarm>
    <weightTrimRate>9.4999999999999996e-01</weightTrimRate>
    <maxDepth>1</maxDepth>
    <maxWeakCount>100</maxWeakCount></stageParams>
  <featureParams>
    <maxCatCount>0</maxCatCount>
    <featSize>1</featSize>
    <mode>ALL</mode></featureParams>
  <stageNum>20</stageNum>
  <stages>
    <!-- stage 0 -->
    <_>
      <maxWeakCount>8</maxWeakCount>
      <stageThreshold>-3.5220471024513245e-01</stageThreshold>
      <weakClassifiers>
        <_>
          <internalNodes>
            0 -1 45 -1.0087887756526470e-02</internalNodes>
          <leafValues>
            -8.8059699535369873e-01 9.1059046983718872e-01</leafValues></_>
        <_>
          <internalNodes>
            0 -1 100 -7.3432037606835365e-03</internalNodes>
          <leafValues>
            8.9361411333084106e-01 -3.1230574846267700e-01</leafValues></_>
        <_>
          <internalNodes>
            0 -1 20 8.4673787932842970e-04</internalNodes>
          <leafValues>
            -3.7754392623901367e-01 8.5197848081588745e-01</leafValues></_>
        <_>
          <internalNodes>
            0 -1 91 -7.0673907175660133e-03</internalNodes>
          <leafValues>
            -8.0805295705795288e-01 4.6833223104476929e-01</leafValues></_>
        <_>
          <internalNodes>
            0 -1 163 7.4995527975261211e-03</internalNodes>
          <leafValues>
            -3.6538487672805786e-01 8.4976321458816528e-01</leafValues></_>
        <_>
          <internalNodes>
            0 -1 151 -2.4061417207121849e-04</internalNodes>
          <leafValues>
            6.0309952497482300e-01 -4.1264566779136658e-01</leafValues></_>
        <_>
          <internalNodes>
            0 -1 149 7.3410623008385301e-04</internalNodes>
          <leafValues>
            -4.2035165429115295e-01 6.7338919639587402e-01</leafValues></_>
        <_>
          <internalNodes>
            0 -1 101 6.6492830228526145e-05</internalNodes>
          <leafValues>
            3.3974879980087280e-01 -8.3254897594451904e-01</leafValues></_></weakClassifiers></_>
    <!-- stage 1 -->
    <_>
      <maxWeakCount>10</maxWeakCount>
      <stageThreshold>-7.8208851814270020e-01</stageThreshold>
      <weakClassifiers>
        <_>
          <internalNodes>
            0 -1 85 -7.7251868788152933e-04</internalNodes>
          <leafValues>
            -6.5591394901275635e-01 9.1676688194274902e-01</leafValues></_>
        <_>
          <internalNodes>
            0 -1 20 3.4160114591941237e-04</internalNodes>
          <leafValues>
            -3.1289836764335632e-01 8.8107228279113770e-01</leafValues></_>
        <_>
          <internalNodes>
            0 -1 99 -2.5572089944034815e-03</internalNodes>
          <leafValues>
            7.0734417438507080e-01 -5.6784033775329590e-01</leafValues></_>
        <_>
          <internalNodes>
            0 -1 95 1.8308599828742445e-04</internalNodes>
          <leafValues>
            3.3534184098243713e-01 -8.9731985330581665e-01</leafValues></_>
        <_>
          <internalNodes>
            0 -1 114 1.5328571200370789e-02</internalNodes>
          <leafValues>
            -3.8107976317405701e-01 7.8360086679458618e-01</leafValues></_>
        <_>
          <internalNodes>
            0 -1 207 -8.8110088836401701e-04</internalNodes>
          <leafValues>
            -7.3448485136032104e-01 3.1803950667381287e-01</leafValues></_>
        <_>
          <internalNodes>
            0 -1 9 4.0379990823566914e-03</internalNodes>
          <leafValues>
            -3.6568403244018555e-01 6.2153714895248413e-01</leafValues></_>
        <_>
          <internalNodes>
            0 -1 118 -2.2865051869302988e-03</internalNodes>
          <leafValues>
            -7.6854538917541504e-01 2.8174450993537903e-01</leafValues></_>
        <_>
          <internalNodes>
            0 -1 108 1.6433070413768291e-04</internalNodes>
          <leafValues>
            2.5062888860702515e-01 -7.6496708393096924e-01</leafValues></_>
        <_>
          <internalNodes>
            0 -1 27 -3.1895053107291460e-03</internalNodes>
          <leafValues>
            9.3968349695205688e-01 -2.4151170253753662e-01</leafValues></_></weakClassifiers></_>
    <!-- stage 2 -->
    <_>
      <maxWeakCount>10</maxWeakCount>
      <stageThreshold>-5.5643618106842041e-01</stageThreshold>
      <weakClassifiers>
        <_>
          <internalNodes>
            0 -1 87 4.1193934157490730e-04</internalNodes>
          <leafValues>
            9.1244018077850342e-01 -9.1428571939468384e-01</leafValues></_>
        <_>
          <internalNodes>
            0 -1 92 -9.1686584055423737e-03</internalNodes>
          <leafValues>
            8.3303040266036987e-01 -3.2908415794372559e-01</leafValues></_>
        <_>
          <internalNodes>
            0 -1 89 1.8201623111963272e-02</internalNodes>
          <leafValues>
            -3.9259773492813110e-01 7.8074032068252563e-01</leafValues></_>
        <_>
          <internalNodes>
            0 -1 19 5.0324894255027175e-04</internalNodes>
          <leafValues>
            -4.4154477119445801e-01 6.2712681293487549e-01</leafValues></_>
        <_>
          <internalNodes>
            0 -1 66 4.3683708645403385e-04</internalNodes>
          <leafValues>
            3.3600148558616638e-01 -8.6091303825378418e-01</leafValues></_>
        <_>
          <internalNodes>
            0 -1 182 5.7751894928514957e-04</internalNodes>
          <leafValues>
            -4.7697958350181580e-01 4.8863556981086731e-01</leafValues></_>
        <_>
          <internalNodes>
            0 -1 219 -1.8778024241328239e-04</internalNodes>
          <leafValues>
            -8.5911023616790771e-01 2.7460381388664246e-01</leafValues></_>
        <_>
          <internalNodes>
            0 -1 150 9.5517042791470885e-04</internalNodes>
          <leafValues>
            -3.9591446518898010e-01 6.8095833063125610e-01</leafValues></_>
        <_>
          <internalNodes>
            0 -1 81 8.4682868327945471e-04</internalNodes>
          <leafValues>
            2.7118086814880371e-01 -9.0227115154266357e-01</leafValues></_>
        <_>
          <internalNodes>
            0 -1 96 -2.6996517553925514e-02</internalNodes>
          <leafValues>
            9.1669827699661255e-01 -3.1442797183990479e-01</leafValues></_></weakClassifiers></_>
    <!-- stage 3 -->
    <_>
      <maxWeakCount>9</maxWeakCount>
      <stageThreshold>-4.5441403985023499e-01</stageThreshold>
      <weakClassifiers>
        <_>
          <internalNodes>
            0 -1 54 -1.0767402127385139e-03</internalNodes>
          <leafValues>
            9.5931476354598999e-01 3.2295718789100647e-01</leafValues></_>
        <_>
          <internalNodes>
            0 -1 20 8.1647443585097790e-04</internalNodes>
          <leafValues>
            -9.7842216491699219e-02 9.2082595825195312e-01</leafValues></_>
        <_>
          <internalNodes>
            0 -1 142 -4.5456035877577960e-04</internalNodes>
          <leafValues>
            6.9480806589126587e-01 -3.9488005638122559e-01</leafValues></_>
        <_>
          <internalNodes>
            0 -1 227 -7.8941148240119219e-04</internalNodes>
          <leafValues>
            8.0208444595336914e-01 -2.6192343235015869e-01</leafValues></_>
        <_>
          <internalNodes>
            0 -1 34 -1.2514195404946804e-03</internalNodes>
          <leafValues>
            -8.9113467931747437e-01 3.1780248880386353e-01</leafValues></_>
        <_>
          <internalNodes>
            0 -1 111 2.2080887109041214e-02</internalNodes>
          <leafValues>
            -4.1359147429466248e-01 6.1633926630020142e-01</leafValues></_>
        <_>
          <internalNodes>
            0 -1 140 8.7092100875452161e-04</internalNodes>
          <leafValues>
            -3.3876585960388184e-01 7.7646797895431519e-01</leafValues></_>
        <_>
          <internalNodes>
            0 -1 169 1.3280096463859081e-03</internalNodes>
          <leafValues>
            -3.2740372419357300e-01 7.7441823482513428e-01</leafValues></_>
        <_>
          <internalNodes>
            0 -1 48 -1.3501381501555443e-02</internalNodes>
          <leafValues>
            6.8464279174804688e-01 -2.9069769382476807e-01</leafValues></_></weakClassifiers></_>
    <!-- stage 4 -->
    <_>
      <maxWeakCount>12</maxWeakCount>
      <stageThreshold>-1.7884901165962219e-01</stageThreshold>
      <weakClassifiers>
        <_>
          <internalNodes>
            0 -1 121 2.7022838592529297e-02</internalNodes>
          <leafValues>
            9.1067588329315186e-01 -1.</leafValues></_>
        <_>
          <internalNodes>
            0 -1 26 2.3516456712968647e-04</internalNodes>
          <leafValues>
            -2.8694665431976318e-01 8.2514446973800659e-01</leafValues></_>
        <_>
          <internalNodes>
            0 -1 38 3.1189459841698408e-03</internalNodes>
          <leafValues>
            -4.8739853501319885e-01 5.9097868204116821e-01</leafValues></_>
        <_>
          <internalNodes>
            0 -1 68 -1.2547380174510181e-04</internalNodes>
          <leafValues>
            -7.5259685516357422e-01 3.5676565766334534e-01</leafValues></_>
        <_>
          <internalNodes>
            0 -1 145 1.3392399996519089e-02</internalNodes>
          <leafValues>
            -4.1861328482627869e-01 5.7001715898513794e-01</leafValues></_>
        <_>
          <internalNodes>
            0 -1 222 -1.9022710330318660e-04</internalNodes>
          <leafValues>
            -8.1343841552734375e-01 2.6945701241493225e-01</leafValues></_>
        <_>
          <internalNodes>
            0 -1 70 9.3836133601143956e-04</internalNodes>
          <leafValues>
            -3.2388079166412354e-01 6.3413381576538086e-01</leafValues></_>
        <_>
          <internalNodes>
            0 -1 213 -3.7273271009325981e-03</internalNodes>
          <leafValues>
            6.4038240909576416e-01 -3.0598774552345276e-01</leafValues></_>
        <_>
          <internalNodes>
            0 -1 5 -3.6572252865880728e-03</internalNodes>
          <leafValues>
            6.9029831886291504e-01 -3.0393344163894653e-01</leafValues></_>
        <_>
          <internalNodes>
            0 -1 8 -2.3696697317063808e-03</internalNodes>
          <leafValues>
            7.5130248069763184e-01 -2.5095257163047791e-01</leafValues></_>
        <_>
          <internalNodes>
            0 -1 119 5.5643438827246428e-04</internalNodes>
          <leafValues>
            2.3310725390911102e-01 -9.1403609514236450e-01</leafValues></_>
        <_>
          <internalNodes>
            0 -1 148 7.9231930430978537e-04</internalNodes>
          <leafValues>
            -3.6541789770126343e-01 5.4398894309997559e-01</leafValues></_></weakClassifiers></_>
    <!-- stage 5 -->
    <_>
      <maxWeakCount>12</maxWeakCount>
      <stageThreshold>-4.7699996829032898e-01</stageThreshold>
      <weakClassifiers>
        <_>
          <internalNodes>
            0 -1 157 9.3992025358602405e-04</internalNodes>
          <leafValues>
            9.0835320949554443e-01 -9.3333333730697632e-01</leafValues></_>
        <_>
          <internalNodes>
            0 -1 20 4.9755140207707882e-04</internalNodes>
          <leafValues>
            -2.0002295076847076e-01 8.1582331657409668e-01</leafValues></_>
        <_>
          <internalNodes>
            0 -1 218 1.6209384193643928e-04</internalNodes>
          <leafValues>
            4.2739772796630859e-01 -7.5620317459106445e-01</leafValues></_>
        <_>
          <internalNodes>
            0 -1 161 -1.8171290867030621e-03</internalNodes>
          <leafValues>
            5.8478844165802002e-01 -4.2086088657379150e-01</leafValues></_>
        <_>
          <internalNodes>
            0 -1 61 2.4741026572883129e-04</internalNodes>
          <leafValues>
            3.2121986150741577e-01 -6.8625885248184204e-01</leafValues></_>
        <_>
          <internalNodes>
            0 -1 153 -4.5168166980147362e-03</internalNodes>
          <leafValues>
            7.7915042638778687e-01 -2.9420816898345947e-01</leafValues></_>
        <_>
          <internalNodes>
            0 -1 43 -2.5561320944689214e-04</internalNodes>
          <leafValues>
            -5.9863090515136719e-01 3.2472994923591614e-01</leafValues></_>
        <_>
          <internalNodes>
            0 -1 225 -5.1249959506094456e-04</internalNodes>
          <leafValues>
            5.5803942680358887e-01 -3.8424116373062134e-01</leafValues></_>
        <_>
          <internalNodes>
            0 -1 31 2.7524062898010015e-04</internalNodes>
          <leafValues>
            2.8317844867706299e-01 -6.8341207504272461e-01</leafValues></_>
        <_>
          <internalNodes>
            0 -1 116 -3.2738642767071724e-04</internalNodes>
          <leafValues>
            -7.3734790086746216e-01 2.1401283144950867e-01</leafValues></_>
        <_>
          <internalNodes>
            0 -1 51 -3.2003561500459909e-04</internalNodes>
          <leafValues>
            2.4332295358181000e-01 -6.2238466739654541e-01</leafValues></_>
        <_>
          <internalNodes>
            0 -1 52 6.4196676248684525e-04</internalNodes>
          <leafValues>
            1.8313233554363251e-01 -8.3827871084213257e-01</leafValues></_></weakClassifiers></_>
    <!-- stage 6 -->
    <_>
      <maxWeakCount>14</maxWeakCount>
      <stageThreshold>-1.4202199876308441e-01</stageThreshold>
      <weakClassifiers>
        <_>
          <internalNodes>
            0 -1 102 1.0958095081150532e-03</internalNodes>
          <leafValues>
            9.0780991315841675e-01 -8.0952382087707520e-01</leafValues></_>
        <_>
          <internalNodes>
            0 -1 21 5.2262801909819245e-04</internalNodes>
          <leafValues>
            -1.9009940326213837e-01 7.9665017127990723e-01</leafValues></_>
        <_>
          <internalNodes>
            0 -1 80 9.0364215429872274e-04</internalNodes>
          <leafValues>
            -4.0549921989440918e-01 5.9404546022415161e-01</leafValues></_>
        <_>
          <internalNodes>
            0 -1 14 1.3071086723357439e-03</internalNodes>
          <leafValues>
            -2.9568922519683838e-01 6.7336392402648926e-01</leafValues></_>
        <_>
          <internalNodes>
            0 -1 109 -2.0407641306519508e-02</internalNodes>
          <leafValues>
            7.8526186943054199e-01 -2.5798335671424866e-01</leafValues></_>
        <_>
          <internalNodes>
            0 -1 198 -3.9708302210783586e-05</internalNodes>
          <leafValues>
            -8.3820343017578125e-01 2.4038387835025787e-01</leafValues></_>
        <_>
          <internalNodes>
            0 -1 131 -4.9828104674816132e-03</internalNodes>
          <leafValues>
            7.1964490413665771e-01 -2.8872531652450562e-01</leafValues></_>
        <_>
          <internalNodes>
            0 -1 76 -9.4003640697337687e-05</internalNodes>
          <leafValues>
            -6.8447005748748779e-01 2.9167598485946655e-01</leafValues></_>
        <_>
          <internalNodes>
            0 -1 10 -2.9732033726759255e-04</internalNodes>
          <leafValues>
            5.5572450160980225e-01 -2.9806080460548401e-01</leafValues></_>
        <_>
          <internalNodes>
            0 -1 162 -7.6666204258799553e-03</internalNodes>
          <leafValues>
            7.3271679878234863e-01 -2.2756044566631317e-01</leafValues></_>
        <_>
          <internalNodes>
            0 -1 208 -1.0654218494892120e-03</internalNodes>
          <leafValues>
            -8.1804358959197998e-01 2.4952752888202667e-01</leafValues></_>
        <_>
          <internalNodes>
            0 -1 141 4.7980662202462554e-04</internalNodes>
          <leafValues>
            -4.1228452324867249e-01 4.0588247776031494e-01</leafValues></_>
        <_>
          <internalNodes>
            0 -1 199 7.3442468419671059e-05</internalNodes>
          <leafValues>
            2.9551088809967041e-01 -6.2965226173400879e-01</leafValues></_>
        <_>
          <internalNodes>
            0 -1 154 2.1363631822168827e-03</internalNodes>
          <leafValues>
            -3.4419775009155273e-01 5.5737167596817017e-01</leafValues></_></weakClassifiers></_>
    <!-- stage 7 -->
    <_>
      <maxWeakCount>12</maxWeakCount>
      <stageThreshold>-1.6365665197372437e-01</stageThreshold>
      <weakClassifiers>
        <_>
          <internalNodes>
            0 -1 78 9.1636320576071739e-04</internalNodes>
          <leafValues>
            9.0276455879211426e-01 -7.0370370149612427e-01</leafValues></_>
        <_>
          <internalNodes>
            0 -1 23 9.4605219783261418e-04</internalNodes>
          <leafValues>
            -1.2750634551048279e-01 8.5380440950393677e-01</leafValues></_>
        <_>
          <internalNodes>
            0 -1 93 -7.5212027877569199e-04</internalNodes>
          <leafValues>
            5.4040092229843140e-01 -4.9775481224060059e-01</leafValues></_>
        <_>
          <internalNodes>
            0 -1 152 1.0096671991050243e-02</internalNodes>
          <leafValues>
            -2.8634840250015259e-01 7.4312883615493774e-01</leafValues></_>
        <_>
          <internalNodes>
            0 -1 202 -4.7169956815196201e-05</internalNodes>
          <leafValues>
            -5.9895855188369751e-01 3.3905157446861267e-01</leafValues></_>
        <_>
          <internalNodes>
            0 -1 16 3.3543008612468839e-04</internalNodes>
          <leafValues>
            -4.1363272070884705e-01 4.5796957612037659e-01</leafValues></_>
        <_>
          <internalNodes>
            0 -1 135 -6.7945476621389389e-03</internalNodes>
          <leafValues>
            8.1823348999023438e-01 -2.7255746722221375e-01</leafValues></_>
        <_>
          <internalNodes>
            0 -1 186 2.0415295148268342e-04</internalNodes>
          <leafValues>
            3.2170990109443665e-01 -7.0251631736755371e-01</leafValues></_>
        <_>
          <internalNodes>
            0 -1 104 1.0963607928715646e-04</internalNodes>
          <leafValues>
            2.0729063451290131e-01 -7.4538630247116089e-01</leafValues></_>
        <_>
          <internalNodes>
            0 -1 138 3.7426319904625416e-03</internalNodes>
          <leafValues>
            -2.9349908232688904e-01 6.7867904901504517e-01</leafValues></_>
        <_>
          <internalNodes>
            0 -1 188 -4.2629745439626276e-04</internalNodes>
          <leafValues>
            -7.3605704307556152e-01 2.3005202412605286e-01</leafValues></_>
        <_>
          <internalNodes>
            0 -1 113 -1.4796475879848003e-03</internalNodes>
          <leafValues>
            6.5793120861053467e-01 -2.7322649955749512e-01</leafValues></_></weakClassifiers></_>
    <!-- stage 8 -->
    <_>
      <maxWeakCount>12</maxWeakCount>
      <stageThreshold>-5.0373768806457520e-01</stageThreshold>
      <weakClassifiers>
        <_>
          <internalNodes>
            0 -1 77 -3.7455685436725616e-02</internalNodes>
          <leafValues>
            -1. 9.0657770633697510e-01</leafValues></_>
        <_>
          <internalNodes>
            0 -1 24 3.3829405438154936e-03</internalNodes>
          <leafValues>
            -3.0434420704841614e-01 7.9667919874191284e-01</leafValues></_>
        <_>
          <internalNodes>
            0 -1 6 8.5741432849317789e-04</internalNodes>
          <leafValues>
            -3.8378942012786865e-01 6.5866571664810181e-01</leafValues></_>
        <_>
          <internalNodes>
            0 -1 205 -6.5293643274344504e-05</internalNodes>
          <leafValues>
            -7.9799532890319824e-01 3.3994558453559875e-01</leafValues></_>
        <_>
          <internalNodes>
            0 -1 33 3.4122809302061796e-04</internalNodes>
          <leafValues>
            2.4263520538806915e-01 -7.6004076004028320e-01</leafValues></_>
        <_>
          <internalNodes>
            0 -1 53 6.2765949405729771e-04</internalNodes>
          <leafValues>
            1.8116730451583862e-01 -8.5895407199859619e-01</leafValues></_>
        <_>
          <internalNodes>
            0 -1 25 6.2484259251505136e-04</internalNodes>
          <leafValues>
            -3.5849800705909729e-01 5.3299015760421753e-01</leafValues></_>
        <_>
          <internalNodes>
            0 -1 28 6.9506897125393152e-04</internalNodes>
          <leafValues>
            2.6161482930183411e-01 -7.6038998365402222e-01</leafValues></_>
        <_>
          <internalNodes>
            0 -1 65 -2.0638247951865196e-03</internalNodes>
          <leafValues>
            3.3735007047653198e-01 -4.6575480699539185e-01</leafValues></_>
        <_>
          <internalNodes>
            0 -1 97 -2.2314913803711534e-04</internalNodes>
          <leafValues>
            -7.4809646606445312e-01 1.8533551692962646e-01</leafValues></_>
        <_>
          <internalNodes>
            0 -1 160 1.9159509101882577e-03</internalNodes>
          <leafValues>
            -3.1166926026344299e-01 6.0504996776580811e-01</leafValues></_>
        <_>
          <internalNodes>
            0 -1 84 1.0293294326402247e-04</internalNodes>
          <leafValues>
            2.4316328763961792e-01 -7.2589617967605591e-01</leafValues></_></weakClassifiers></_>
    <!-- stage 9 -->
    <_>
      <maxWeakCount>13</maxWeakCount>
      <stageThreshold>-3.0442329123616219e-02</stageThreshold>
      <weakClassifiers>
        <_>
          <internalNodes>
            0 -1 49 -5.7438120245933533e-02</internalNodes>
          <leafValues>
            -1. 9.0385532379150391e-01</leafValues></_>
        <_>
          <internalNodes>
            0 -1 21 4.1230040369555354e-04</internalNodes>
          <leafValues>
            -2.5284755229949951e-01 8.0460935831069946e-01</leafValues></_>
        <_>
          <internalNodes>
            0 -1 128 1.8483871594071388e-02</internalNodes>
          <leafValues>
            -3.8762119412422180e-01 6.4816468954086304e-01</leafValues></_>
        <_>
          <internalNodes>
            0 -1 216 2.8728728648275137e-04</internalNodes>
          <leafValues>
            -3.9084845781326294e-01 5.6144022941589355e-01</leafValues></_>
        <_>
          <internalNodes>
            0 -1 64 -3.4173898166045547e-04</internalNodes>
          <leafValues>
            3.9510115981101990e-01 -5.1810395717620850e-01</leafValues></_>
        <_>
          <internalNodes>
            0 -1 167 2.1563947666436434e-04</internalNodes>
          <leafValues>
            -3.3734518289566040e-01 5.4875755310058594e-01</leafValues></_>
        <_>
          <internalNodes>
            0 -1 124 -2.6853638701140881e-04</internalNodes>
          <leafValues>
            -8.2814836502075195e-01 2.1803919970989227e-01</leafValues></_>
        <_>
          <internalNodes>
            0 -1 90 3.4963381476700306e-03</internalNodes>
          <leafValues>
            -2.7520015835762024e-01 6.1481517553329468e-01</leafValues></_>
        <_>
          <internalNodes>
            0 -1 165 -1.4152341522276402e-02</internalNodes>
          <leafValues>
            -7.6953244209289551e-01 2.0145609974861145e-01</leafValues></_>
        <_>
          <internalNodes>
            0 -1 196 7.7799567952752113e-03</internalNodes>
          <leafValues>
            -2.6081848144531250e-01 6.8141144514083862e-01</leafValues></_>
        <_>
          <internalNodes>
            0 -1 168 -4.2918417602777481e-04</internalNodes>
          <leafValues>
            -6.5918785333633423e-01 2.5886127352714539e-01</leafValues></_>
        <_>
          <internalNodes>
            0 -1 2 5.0557740032672882e-02</internalNodes>
          <leafValues>
            -2.2035811841487885e-01 7.5807219743728638e-01</leafValues></_>
        <_>
          <internalNodes>
            0 -1 56 -4.2986709740944207e-04</internalNodes>
          <leafValues>
            -8.0305844545364380e-01 2.2544802725315094e-01</leafValues></_></weakClassifiers></_>
    <!-- stage 10 -->
    <_>
      <maxWeakCount>12</maxWeakCount>
      <stageThreshold>-2.1509648859500885e-01</stageThreshold>
      <weakClassifiers>
        <_>
          <internalNodes>
            0 -1 75 6.3199142459779978e-04</internalNodes>
          <leafValues>
            9.0635448694229126e-01 -6.8750000000000000e-01</leafValues></_>
        <_>
          <internalNodes>
            0 -1 221 2.2196705685928464e-04</internalNodes>
          <leafValues>
            -7.6127409934997559e-02 8.5346674919128418e-01</leafValues></_>
        <_>
          <internalNodes>
            0 -1 184 2.2110042627900839e-03</internalNodes>
          <leafValues>
            -2.4055877327919006e-01 8.0020534992218018e-01</leafValues></_>
        <_>
          <internalNodes>
            0 -1 18 2.4953100364655256e-04</internalNodes>
          <leafValues>
            -4.4527035951614380e-01 5.2162486314773560e-01</leafValues></_>
        <_>
          <internalNodes>
            0 -1 55 -8.5416977526620030e-05</internalNodes>
          <leafValues>
            -7.5102078914642334e-01 2.7380800247192383e-01</leafValues></_>
        <_>
          <internalNodes>
            0 -1 228 4.2223017662763596e-03</internalNodes>
          <leafValues>
            -2.4419456720352173e-01 7.8615963459014893e-01</leafValues></_>
        <_>
          <internalNodes>
            0 -1 11 1.4130851486697793e-03</internalNodes>
          <leafValues>
            -1.9024044275283813e-01 8.7574702501296997e-01</leafValues></_>
        <_>
          <internalNodes>
            0 -1 130 -1.5043769963085651e-03</internalNodes>
          <leafValues>
            6.3212621212005615e-01 -2.3086848855018616e-01</leafValues></_>
        <_>
          <internalNodes>
            0 -1 103 1.2793685309588909e-03</internalNodes>
          <leafValues>
            -3.0046781897544861e-01 5.3885573148727417e-01</leafValues></_>
        <_>
          <internalNodes>
            0 -1 178 1.1281340848654509e-03</internalNodes>
          <leafValues>
            -3.6544480919837952e-01 5.5588376522064209e-01</leafValues></_>
        <_>
          <internalNodes>
            0 -1 175 -1.9650989997899160e-05</internalNodes>
          <leafValues>
            -5.7472079992294312e-01 2.7655267715454102e-01</leafValues></_>
        <_>
          <internalNodes>
            0 -1 194 4.8196911811828613e-03</internalNodes>
          <leafValues>
            -2.5612843036651611e-01 6.1682617664337158e-01</leafValues></_></weakClassifiers></_>
    <!-- stage 11 -->
    <_>
      <maxWeakCount>13</maxWeakCount>
      <stageThreshold>-5.4613137245178223e-01</stageThreshold>
      <weakClassifiers>
        <_>
          <internalNodes>
            0 -1 67 -6.4811506308615208e-04</internalNodes>
          <leafValues>
            -3.2673266530036926e-01 9.1178596019744873e-01</leafValues></_>
        <_>
          <internalNodes>
            0 -1 12 1.8063291208818555e-03</internalNodes>
          <leafValues>
            -6.8057365715503693e-02 8.4390503168106079e-01</leafValues></_>
        <_>
          <internalNodes>
            0 -1 146 1.6550367698073387e-02</internalNodes>
          <leafValues>
            -3.5963189601898193e-01 5.8677786588668823e-01</leafValues></_>
        <_>
          <internalNodes>
            0 -1 159 -3.3127623610198498e-03</internalNodes>
          <leafValues>
            7.8041923046112061e-01 -2.5050607323646545e-01</leafValues></_>
        <_>
          <internalNodes>
            0 -1 224 -8.6199352517724037e-04</internalNodes>
          <leafValues>
            8.0813634395599365e-01 -2.1030864119529724e-01</leafValues></_>
        <_>
          <internalNodes>
            0 -1 4 1.3403160497546196e-02</internalNodes>
          <leafValues>
            -2.2783085703849792e-01 7.9634100198745728e-01</leafValues></_>
        <_>
          <internalNodes>
            0 -1 158 9.7904307767748833e-04</internalNodes>
          <leafValues>
            -3.1315550208091736e-01 6.6847079992294312e-01</leafValues></_>
        <_>
          <internalNodes>
            0 -1 105 3.3705739770084620e-04</internalNodes>
          <leafValues>
            3.2916307449340820e-01 -7.0174866914749146e-01</leafValues></_>
        <_>
          <internalNodes>
            0 -1 10 -2.7726730331778526e-04</internalNodes>
          <leafValues>
            6.6571140289306641e-01 -3.0017670989036560e-01</leafValues></_>
        <_>
          <internalNodes>
            0 -1 19 7.2234793333336711e-04</internalNodes>
          <leafValues>
            -3.6147281527519226e-01 5.2014446258544922e-01</leafValues></_>
        <_>
          <internalNodes>
            0 -1 144 7.1791920345276594e-04</internalNodes>
          <leafValues>
            2.2490361332893372e-01 -7.9359275102615356e-01</leafValues></_>
        <_>
          <internalNodes>
            0 -1 127 -6.0959691181778908e-03</internalNodes>
          <leafValues>
            6.2621647119522095e-01 -3.1554704904556274e-01</leafValues></_>
        <_>
          <internalNodes>
            0 -1 183 6.0025035054422915e-05</internalNodes>
          <leafValues>
            -5.8692342042922974e-01 3.5299128293991089e-01</leafValues></_></weakClassifiers></_>
    <!-- stage 12 -->
    <_>
      <maxWeakCount>14</maxWeakCount>
      <stageThreshold>-3.9153489470481873e-01</stageThreshold>
      <weakClassifiers>
        <_>
          <internalNodes>
            0 -1 30 -6.1663787346333265e-04</internalNodes>
          <leafValues>
            -8.8235294818878174e-01 9.0378659963607788e-01</leafValues></_>
        <_>
          <internalNodes>
            0 -1 19 2.6760750915855169e-04</internalNodes>
          <leafValues>
            -2.3943158984184265e-01 7.3517549037933350e-01</leafValues></_>
        <_>
          <internalNodes>
            0 -1 106 -3.3008714672178030e-03</internalNodes>
          <leafValues>
            5.1946377754211426e-01 -4.4144380092620850e-01</leafValues></_>
        <_>
          <internalNodes>
            0 -1 134 2.5388002395629883e-02</internalNodes>
          <leafValues>
            -2.1960379183292389e-01 8.1614077091217041e-01</leafValues></_>
        <_>
          <internalNodes>
            0 -1 98 -1.9359734142199159e-04</internalNodes>
          <leafValues>
            -6.8259513378143311e-01 2.9630997776985168e-01</leafValues></_>
        <_>
          <internalNodes>
            0 -1 0 -1.0746774263679981e-02</internalNodes>
          <leafValues>
            4.3617334961891174e-01 -3.9860579371452332e-01</leafValues></_>
        <_>
          <internalNodes>
            0 -1 201 -1.9174323824699968e-04</internalNodes>
          <leafValues>
            -6.2803494930267334e-01 2.8446999192237854e-01</leafValues></_>
        <_>
          <internalNodes>
            0 -1 226 2.8726531309075654e-04</internalNodes>
          <leafValues>
            -2.2987857460975647e-01 7.4989920854568481e-01</leafValues></_>
        <_>
          <internalNodes>
            0 -1 17 -5.6348874932155013e-04</internalNodes>
          <leafValues>
            8.3771693706512451e-01 -1.6419750452041626e-01</leafValues></_>
        <_>
          <internalNodes>
            0 -1 59 -7.4817537097260356e-04</internalNodes>
          <leafValues>
            -7.7400255203247070e-01 2.4431259930133820e-01</leafValues></_>
        <_>
          <internalNodes>
            0 -1 35 -3.0154008418321609e-03</internalNodes>
          <leafValues>
            5.8542412519454956e-01 -3.4283882379531860e-01</leafValues></_>
        <_>
          <internalNodes>
            0 -1 123 2.5628402363508940e-04</internalNodes>
          <leafValues>
            -4.0044525265693665e-01 4.0358141064643860e-01</leafValues></_>
        <_>
          <internalNodes>
            0 -1 177 -2.3807804100215435e-03</internalNodes>
          <leafValues>
            -8.8889467716217041e-01 1.9201050698757172e-01</leafValues></_>
        <_>
          <internalNodes>
            0 -1 223 4.4805719517171383e-04</internalNodes>
          <leafValues>
            1.1932596564292908e-01 -9.3794816732406616e-01</leafValues></_></weakClassifiers></_>
    <!-- stage 13 -->
    <_>
      <maxWeakCount>13</maxWeakCount>
      <stageThreshold>-5.3273916244506836e-01</stageThreshold>
      <weakClassifiers>
        <_>
          <internalNodes>
            0 -1 39 4.8359176144003868e-03</internalNodes>
          <leafValues>
            9.1187739372253418e-01 -7.8378379344940186e-01</leafValues></_>
        <_>
          <internalNodes>
            0 -1 7 9.7529180347919464e-03</internalNodes>
          <leafValues>
            -1.7484736442565918e-01 7.6354020833969116e-01</leafValues></_>
        <_>
          <internalNodes>
            0 -1 220 2.7722050435841084e-04</internalNodes>
          <leafValues>
            -3.4459149837493896e-01 6.3976919651031494e-01</leafValues></_>
        <_>
          <internalNodes>
            0 -1 206 1.2036330736009404e-04</internalNodes>
          <leafValues>
            2.7188667654991150e-01 -7.4589920043945312e-01</leafValues></_>
        <_>
          <internalNodes>
            0 -1 156 1.9780565053224564e-03</internalNodes>
          <leafValues>
            -2.8938600420951843e-01 6.3522791862487793e-01</leafValues></_>
        <_>
          <internalNodes>
            0 -1 185 2.9141979757696390e-04</internalNodes>
          <leafValues>
            -2.2621582448482513e-01 6.8622803688049316e-01</leafValues></_>
        <_>
          <internalNodes>
            0 -1 125 9.7721276688389480e-05</internalNodes>
          <leafValues>
            2.9515236616134644e-01 -5.7843625545501709e-01</leafValues></_>
        <_>
          <internalNodes>
            0 -1 129 2.0185846835374832e-02</internalNodes>
          <leafValues>
            -3.3297446370124817e-01 5.3424423933029175e-01</leafValues></_>
        <_>
          <internalNodes>
            0 -1 112 -7.2811329737305641e-03</internalNodes>
          <leafValues>
            7.3318666219711304e-01 -2.4378901720046997e-01</leafValues></_>
        <_>
          <internalNodes>
            0 -1 164 -9.4646646175533533e-04</internalNodes>
          <leafValues>
            -6.6226238012313843e-01 2.6585629582405090e-01</leafValues></_>
        <_>
          <internalNodes>
            0 -1 172 3.5783147905021906e-04</internalNodes>
          <leafValues>
            -2.8067728877067566e-01 5.4595094919204712e-01</leafValues></_>
        <_>
          <internalNodes>
            0 -1 200 2.7233384549617767e-02</internalNodes>
          <leafValues>
            -2.2261996567249298e-01 6.8156462907791138e-01</leafValues></_>
        <_>
          <internalNodes>
            0 -1 36 -2.7494758833199739e-03</internalNodes>
          <leafValues>
            6.3770192861557007e-01 -2.1865245699882507e-01</leafValues></_></weakClassifiers></_>
    <!-- stage 14 -->
    <_>
      <maxWeakCount>14</maxWeakCount>
      <stageThreshold>-2.2878818213939667e-01</stageThreshold>
      <weakClassifiers>
        <_>
          <internalNodes>
            0 -1 170 4.2168825166299939e-04</internalNodes>
          <leafValues>
            9.0147548913955688e-01 -7.9166668653488159e-01</leafValues></_>
        <_>
          <internalNodes>
            0 -1 25 1.9331043586134911e-04</internalNodes>
          <leafValues>
            -1.6056172549724579e-01 7.6042783260345459e-01</leafValues></_>
        <_>
          <internalNodes>
            0 -1 13 3.7157889455556870e-03</internalNodes>
          <leafValues>
            -2.6573762297630310e-01 6.1050951480865479e-01</leafValues></_>
        <_>
          <internalNodes>
            0 -1 40 1.2578361202031374e-04</internalNodes>
          <leafValues>
            3.0459341406822205e-01 -6.4869272708892822e-01</leafValues></_>
        <_>
          <internalNodes>
            0 -1 147 1.3267463073134422e-03</internalNodes>
          <leafValues>
            -3.4812110662460327e-01 5.4771333932876587e-01</leafValues></_>
        <_>
          <internalNodes>
            0 -1 179 5.8262969832867384e-04</internalNodes>
          <leafValues>
            -3.5700353980064392e-01 4.5103377103805542e-01</leafValues></_>
        <_>
          <internalNodes>
            0 -1 190 -6.0452627949416637e-03</internalNodes>
          <leafValues>
            5.7523107528686523e-01 -2.6272630691528320e-01</leafValues></_>
        <_>
          <internalNodes>
            0 -1 217 -7.8048789873719215e-05</internalNodes>
          <leafValues>
            -7.0985567569732666e-01 2.2900098562240601e-01</leafValues></_>
        <_>
          <internalNodes>
            0 -1 1 -5.1255859434604645e-03</internalNodes>
          <leafValues>
            6.5954446792602539e-01 -2.7090343832969666e-01</leafValues></_>
        <_>
          <internalNodes>
            0 -1 143 -3.9416534127667546e-04</internalNodes>
          <leafValues>
            -7.8968322277069092e-01 2.1208894252777100e-01</leafValues></_>
        <_>
          <internalNodes>
            0 -1 10 -4.2215210851281881e-04</internalNodes>
          <leafValues>
            5.9281998872756958e-01 -2.7784889936447144e-01</leafValues></_>
        <_>
          <internalNodes>
            0 -1 15 9.6152172773145139e-05</internalNodes>
          <leafValues>
            -3.0265933275222778e-01 5.1918095350265503e-01</leafValues></_>
        <_>
          <internalNodes>
            0 -1 171 3.5402760840952396e-03</internalNodes>
          <leafValues>
            1.6990497708320618e-01 -9.4488841295242310e-01</leafValues></_>
        <_>
          <internalNodes>
            0 -1 50 -1.2910511577501893e-03</internalNodes>
          <leafValues>
            4.1314655542373657e-01 -3.9253869652748108e-01</leafValues></_></weakClassifiers></_>
    <!-- stage 15 -->
    <_>
      <maxWeakCount>14</maxWeakCount>
      <stageThreshold>-5.7264292240142822e-01</stageThreshold>
      <weakClassifiers>
        <_>
          <internalNodes>
            0 -1 37 -1.0344774927943945e-03</internalNodes>
          <leafValues>
            -7.3134326934814453e-01 9.0819984674453735e-01</leafValues></_>
        <_>
          <internalNodes>
            0 -1 192 3.3673964440822601e-02</internalNodes>
          <leafValues>
            -5.9710692614316940e-02 7.9014849662780762e-01</leafValues></_>
        <_>
          <internalNodes>
            0 -1 16 4.5427260920405388e-04</internalNodes>
          <leafValues>
            -3.5398298501968384e-01 5.9788030385971069e-01</leafValues></_>
        <_>
          <internalNodes>
            0 -1 41 4.3284601997584105e-04</internalNodes>
          <leafValues>
            3.0404531955718994e-01 -7.2408378124237061e-01</leafValues></_>
        <_>
          <internalNodes>
            0 -1 174 -1.9808835349977016e-03</internalNodes>
          <leafValues>
            4.6335476636886597e-01 -3.5519224405288696e-01</leafValues></_>
        <_>
          <internalNodes>
            0 -1 86 1.5409055049531162e-04</internalNodes>
          <leafValues>
            1.9905039668083191e-01 -8.3747929334640503e-01</leafValues></_>
        <_>
          <internalNodes>
            0 -1 180 -7.6802505645900965e-04</internalNodes>
          <leafValues>
            4.6026775240898132e-01 -3.5449320077896118e-01</leafValues></_>
        <_>
          <internalNodes>
            0 -1 166 6.3797422626521438e-05</internalNodes>
          <leafValues>
            -3.3767691254615784e-01 4.8748567700386047e-01</leafValues></_>
        <_>
          <internalNodes>
            0 -1 212 -2.5230663595721126e-05</internalNodes>
          <leafValues>
            -6.2095904350280762e-01 2.5723248720169067e-01</leafValues></_>
        <_>
          <internalNodes>
            0 -1 191 -1.5881789149716496e-03</internalNodes>
          <leafValues>
            5.6114143133163452e-01 -3.3267974853515625e-01</leafValues></_>
        <_>
          <internalNodes>
            0 -1 82 -1.2550808605737984e-04</internalNodes>
          <leafValues>
            -5.7467734813690186e-01 2.8903552889823914e-01</leafValues></_>
        <_>
          <internalNodes>
            0 -1 73 4.4905242975801229e-04</internalNodes>
          <leafValues>
            -2.9915031790733337e-01 5.1956212520599365e-01</leafValues></_>
        <_>
          <internalNodes>
            0 -1 88 4.0629324503242970e-03</internalNodes>
          <leafValues>
            -2.1575747430324554e-01 6.4272719621658325e-01</leafValues></_>
        <_>
          <internalNodes>
            0 -1 173 -3.9550621295347810e-05</internalNodes>
          <leafValues>
            5.6891542673110962e-01 -2.5167125463485718e-01</leafValues></_></weakClassifiers></_>
    <!-- stage 16 -->
    <_>
      <maxWeakCount>13</maxWeakCount>
      <stageThreshold>-1.3384586572647095e-01</stageThreshold>
      <weakClassifiers>
        <_>
          <internalNodes>
            0 -1 120 -1.0453930590301752e-03</internalNodes>
          <leafValues>
            -9.5348834991455078e-01 9.0111720561981201e-01</leafValues></_>
        <_>
          <internalNodes>
            0 -1 21 1.9773142412304878e-04</internalNodes>
          <leafValues>
            -2.5993606448173523e-01 7.2660398483276367e-01</leafValues></_>
        <_>
          <internalNodes>
            0 -1 57 5.5372505448758602e-04</internalNodes>
          <leafValues>
            -5.1244461536407471e-01 4.7558903694152832e-01</leafValues></_>
        <_>
          <internalNodes>
            0 -1 225 -5.5197905749082565e-04</internalNodes>
          <leafValues>
            5.2440506219863892e-01 -3.5638028383255005e-01</leafValues></_>
        <_>
          <internalNodes>
            0 -1 42 -7.2611655923537910e-05</internalNodes>
          <leafValues>
            -6.2325578927993774e-01 3.2100471854209900e-01</leafValues></_>
        <_>
          <internalNodes>
            0 -1 132 7.4996156617999077e-03</internalNodes>
          <leafValues>
            -4.5558694005012512e-01 4.0895378589630127e-01</leafValues></_>
        <_>
          <internalNodes>
            0 -1 29 -1.7222779570147395e-04</internalNodes>
          <leafValues>
            -8.9801436662673950e-01 1.8271179497241974e-01</leafValues></_>
        <_>
          <internalNodes>
            0 -1 181 -5.4120859131217003e-03</internalNodes>
          <leafValues>
            7.0853412151336670e-01 -2.8361943364143372e-01</leafValues></_>
        <_>
          <internalNodes>
            0 -1 107 -5.1431840984150767e-04</internalNodes>
          <leafValues>
            -8.0160713195800781e-01 1.9074441492557526e-01</leafValues></_>
        <_>
          <internalNodes>
            0 -1 189 2.7348205912858248e-04</internalNodes>
          <leafValues>
            -2.9032969474792480e-01 5.4263609647750854e-01</leafValues></_>
        <_>
          <internalNodes>
            0 -1 3 -2.6480449014343321e-04</internalNodes>
          <leafValues>
            6.4619147777557373e-01 -2.5439226627349854e-01</leafValues></_>
        <_>
          <internalNodes>
            0 -1 44 -5.3475938329938799e-05</internalNodes>
          <leafValues>
            -6.1461907625198364e-01 2.6553544402122498e-01</leafValues></_>
        <_>
          <internalNodes>
            0 -1 209 -1.2355766957625747e-03</internalNodes>
          <leafValues>
            5.3846907615661621e-01 -2.8742510080337524e-01</leafValues></_></weakClassifiers></_>
    <!-- stage 17 -->
    <_>
      <maxWeakCount>15</maxWeakCount>
      <stageThreshold>-1.6315896809101105e-01</stageThreshold>
      <weakClassifiers>
        <_>
          <internalNodes>
            0 -1 79 -2.8023514896631241e-02</internalNodes>
          <leafValues>
            -8.7234044075012207e-01 9.0197479724884033e-01</leafValues></_>
        <_>
          <internalNodes>
            0 -1 58 -5.5429222993552685e-04</internalNodes>
          <leafValues>
            7.7714145183563232e-01 -2.1166983246803284e-01</leafValues></_>
        <_>
          <internalNodes>
            0 -1 22 -5.7303486391901970e-04</internalNodes>
          <leafValues>
            5.6764286756515503e-01 -3.4766411781311035e-01</leafValues></_>
        <_>
          <internalNodes>
            0 -1 32 -4.5945213059894741e-05</internalNodes>
          <leafValues>
            -7.8254193067550659e-01 2.3974475264549255e-01</leafValues></_>
        <_>
          <internalNodes>
            0 -1 229 4.4544287957251072e-03</internalNodes>
          <leafValues>
            -2.3516921699047089e-01 7.2721982002258301e-01</leafValues></_>
        <_>
          <internalNodes>
            0 -1 63 1.3613759540021420e-02</internalNodes>
          <leafValues>
            -3.0256828665733337e-01 5.1012492179870605e-01</leafValues></_>
        <_>
          <internalNodes>
            0 -1 60 2.1038140403106809e-04</internalNodes>
          <leafValues>
            2.7875378727912903e-01 -6.2187421321868896e-01</leafValues></_>
        <_>
          <internalNodes>
            0 -1 133 1.0270942002534866e-02</internalNodes>
          <leafValues>
            -2.9567122459411621e-01 5.6278568506240845e-01</leafValues></_>
        <_>
          <internalNodes>
            0 -1 115 1.9775255350396037e-04</internalNodes>
          <leafValues>
            2.3524048924446106e-01 -6.2457513809204102e-01</leafValues></_>
        <_>
          <internalNodes>
            0 -1 62 3.0913532827980816e-04</internalNodes>
          <leafValues>
            2.3281186819076538e-01 -5.4884302616119385e-01</leafValues></_>
        <_>
          <internalNodes>
            0 -1 230 8.2254802691750228e-05</internalNodes>
          <leafValues>
            2.0636104047298431e-01 -6.5300023555755615e-01</leafValues></_>
        <_>
          <internalNodes>
            0 -1 211 -3.6226457450538874e-04</internalNodes>
          <leafValues>
            6.2887096405029297e-01 -2.6865169405937195e-01</leafValues></_>
        <_>
          <internalNodes>
            0 -1 214 6.1472802190110087e-04</internalNodes>
          <leafValues>
            -2.2614145278930664e-01 6.2125045061111450e-01</leafValues></_>
        <_>
          <internalNodes>
            0 -1 122 3.4998866613022983e-04</internalNodes>
          <leafValues>
            -4.0404167771339417e-01 3.7804985046386719e-01</leafValues></_>
        <_>
          <internalNodes>
            0 -1 176 -4.2143713682889938e-02</internalNodes>
          <leafValues>
            -8.3320248126983643e-01 1.8554367125034332e-01</leafValues></_></weakClassifiers></_>
    <!-- stage 18 -->
    <_>
      <maxWeakCount>13</maxWeakCount>
      <stageThreshold>-1.4629368484020233e-01</stageThreshold>
      <weakClassifiers>
        <_>
          <internalNodes>
            0 -1 94 1.3342859456315637e-03</internalNodes>
          <leafValues>
            9.0337932109832764e-01 -9.5833331346511841e-01</leafValues></_>
        <_>
          <internalNodes>
            0 -1 25 3.5389192635193467e-04</internalNodes>
          <leafValues>
            -1.0384144634008408e-01 8.3442473411560059e-01</leafValues></_>
        <_>
          <internalNodes>
            0 -1 83 9.6332246903330088e-04</internalNodes>
          <leafValues>
            -3.2796093821525574e-01 5.7523578405380249e-01</leafValues></_>
        <_>
          <internalNodes>
            0 -1 204 1.7071029287762940e-04</internalNodes>
          <leafValues>
            2.7137073874473572e-01 -7.7138155698776245e-01</leafValues></_>
        <_>
          <internalNodes>
            0 -1 203 -2.4499488063156605e-03</internalNodes>
          <leafValues>
            5.9401035308837891e-01 -3.5917696356773376e-01</leafValues></_>
        <_>
          <internalNodes>
            0 -1 46 -2.5203146506100893e-03</internalNodes>
          <leafValues>
            5.2462917566299438e-01 -2.9655581712722778e-01</leafValues></_>
        <_>
          <internalNodes>
            0 -1 136 5.1975692622363567e-04</internalNodes>
          <leafValues>
            -2.7065324783325195e-01 5.9225714206695557e-01</leafValues></_>
        <_>
          <internalNodes>
            0 -1 71 6.3707316294312477e-03</internalNodes>
          <leafValues>
            -2.5080785155296326e-01 6.9136244058609009e-01</leafValues></_>
        <_>
          <internalNodes>
            0 -1 187 1.6895397566258907e-03</internalNodes>
          <leafValues>
            -2.3831680417060852e-01 6.7535841464996338e-01</leafValues></_>
        <_>
          <internalNodes>
            0 -1 117 5.8386583987157792e-05</internalNodes>
          <leafValues>
            3.5296109318733215e-01 -5.1729768514633179e-01</leafValues></_>
        <_>
          <internalNodes>
            0 -1 193 2.5620847009122372e-04</internalNodes>
          <leafValues>
            -3.3724752068519592e-01 4.9698978662490845e-01</leafValues></_>
        <_>
          <internalNodes>
            0 -1 69 -7.3595764115452766e-04</internalNodes>
          <leafValues>
            -8.5119539499282837e-01 2.2612693905830383e-01</leafValues></_>
        <_>
          <internalNodes>
            0 -1 139 2.2899928444530815e-04</internalNodes>
          <leafValues>
            3.2621097564697266e-01 -5.7848155498504639e-01</leafValues></_></weakClassifiers></_>
    <!-- stage 19 -->
    <_>
      <maxWeakCount>12</maxWeakCount>
      <stageThreshold>-1.1162728816270828e-01</stageThreshold>
      <weakClassifiers>
        <_>
          <internalNodes>
            0 -1 155 -5.4735399782657623e-02</internalNodes>
          <leafValues>
            -9.2156863212585449e-01 9.0426290035247803e-01</leafValues></_>
        <_>
          <internalNodes>
            0 -1 137 -1.3152877800166607e-03</internalNodes>
          <leafValues>
            -5.1768386363983154e-01 6.8276393413543701e-01</leafValues></_>
        <_>
          <internalNodes>
            0 -1 215 -1.7250688979402184e-03</internalNodes>
          <leafValues>
            6.8770527839660645e-01 -3.8374343514442444e-01</leafValues></_>
        <_>
          <internalNodes>
            0 -1 72 -5.2764574065804482e-03</internalNodes>
          <leafValues>
            6.3305187225341797e-01 -3.5555344820022583e-01</leafValues></_>
        <_>
          <internalNodes>
            0 -1 126 6.3587324693799019e-03</internalNodes>
          <leafValues>
            -2.5567579269409180e-01 7.3869037628173828e-01</leafValues></_>
        <_>
          <internalNodes>
            0 -1 197 7.2057577199302614e-05</internalNodes>
          <leafValues>
            2.3426888883113861e-01 -8.1220448017120361e-01</leafValues></_>
        <_>
          <internalNodes>
            0 -1 47 -4.0691867470741272e-03</internalNodes>
          <leafValues>
            5.9307980537414551e-01 -2.9736807942390442e-01</leafValues></_>
        <_>
          <internalNodes>
            0 -1 74 4.8269651830196381e-02</internalNodes>
          <leafValues>
            1.9130225479602814e-01 -8.3762675523757935e-01</leafValues></_>
        <_>
          <internalNodes>
            0 -1 6 4.1922752279788256e-04</internalNodes>
          <leafValues>
            -5.1460421085357666e-01 3.5179874300956726e-01</leafValues></_>
        <_>
          <internalNodes>
            0 -1 210 3.9409345481544733e-04</internalNodes>
          <leafValues>
            -2.5416046380996704e-01 7.5052988529205322e-01</leafValues></_>
        <_>
          <internalNodes>
            0 -1 195 3.6479684058576822e-04</internalNodes>
          <leafValues>
            2.8587359189987183e-01 -5.6850296258926392e-01</leafValues></_>
        <_>
          <internalNodes>
            0 -1 110 6.7155470605939627e-04</internalNodes>
          <leafValues>
            -1.9745784997940063e-01 8.6913877725601196e-01</leafValues></_></weakClassifiers></_></stages>
  <features>
    <_>
      <rects>
        <_>
          0 1 35 8 -1.</_>
        <_>
          0 5 35 4 2.</_></rects>
      <tilted>0</tilted></_>
    <_>
      <rects>
        <_>
          0 4 12 20 -1.</_>
        <_>
          3 4 6 20 2.</_></rects>
      <tilted>0</tilted></_>
    <_>
      <rects>
        <_>
          0 9 14 68 -1.</_>
        <_>
          0 9 7 34 2.</_>
        <_>
          7 43 7 34 2.</_></rects>
      <tilted>0</tilted></_>
    <_>
      <rects>
        <_>
          0 12 2 26 -1.</_>
        <_>
          0 12 1 13 2.</_>
        <_>
          1 25 1 13 2.</_></rects>
      <tilted>0</tilted></_>
    <_>
      <rects>
        <_>
          0 16 8 42 -1.</_>
        <_>
          0 16 4 21 2.</_>
        <_>
          4 37 4 21 2.</_></rects>
      <tilted>0</tilted></_>
    <_>
      <rects>
        <_>
          0 19 1 32 -1.</_>
        <_>
          0 35 1 16 2.</_></rects>
      <tilted>0</tilted></_>
    <_>
      <rects>
        <_>
          0 21 2 26 -1.</_>
        <_>
          0 21 1 13 2.</_>
        <_>
          1 34 1 13 2.</_></rects>
      <tilted>0</tilted></_>
    <_>
      <rects>
        <_>
          0 22 18 35 -1.</_>
        <_>
          6 22 6 35 3.</_></rects>
      <tilted>0</tilted></_>
    <_>
      <rects>
        <_>
          0 28 4 24 -1.</_>
        <_>
          0 28 2 12 2.</_>
        <_>
          2 40 2 12 2.</_></rects>
      <tilted>0</tilted></_>
    <_>
      <rects>
        <_>
          0 28 6 28 -1.</_>
        <_>
          3 28 3 28 2.</_></rects>
      <tilted>0</tilted></_>
    <_>
      <rects>
        <_>
          0 31 3 19 -1.</_>
        <_>
          1 31 1 19 3.</_></rects>
      <tilted>0</tilted></_>
    <_>
      <rects>
        <_>
          0 31 2 40 -1.</_>
        <_>
          0 31 1 20 2.</_>
        <_>
          1 51 1 20 2.</_></rects>
      <tilted>0</tilted></_>
    <_>
      <rects>
        <_>
          0 31 6 18 -1.</_>
        <_>
          2 31 2 18 3.</_></rects>
      <tilted>0</tilted></_>
    <_>
      <rects>
        <_>
          0 31 4 19 -1.</_>
        <_>
          2 31 2 19 2.</_></rects>
      <tilted>0</tilted></_>
    <_>
      <rects>
        <_>
          0 33 1 15 -1.</_>
        <_>
          0 38 1 5 3.</_></rects>
      <tilted>0</tilted></_>
    <_>
      <rects>
        <_>
          0 34 3 2 -1.</_>
        <_>
          1 34 1 2 3.</_></rects>
      <tilted>0</tilted></_>
    <_>
      <rects>
        <_>
          0 34 1 12 -1.</_>
        <_>
          0 37 1 6 2.</_></rects>
      <tilted>0</tilted></_>
    <_>
      <rects>
        <_>
          0 34 2 6 -1.</_>
        <_>
          0 34 1 3 2.</_>
        <_>
          1 37 1 3 2.</_></rects>
      <tilted>0</tilted></_>
    <_>
      <rects>
        <_>
          0 34 1 12 -1.</_>
        <_>
          0 38 1 4 3.</_></rects>
      <tilted>0</tilted></_>
    <_>
      <rects>
        <_>
          0 34 3 12 -1.</_>
        <_>
          1 34 1 12 3.</_></rects>
      <tilted>0</tilted></_>
    <_>
      <rects>
        <_>
          0 34 2 13 -1.</_>
        <_>
          1 34 1 13 2.</_></rects>
      <tilted>0</tilted></_>
    <_>
      <rects>
        <_>
          0 34 3 13 -1.</_>
        <_>
          1 34 1 13 3.</_></rects>
      <tilted>0</tilted></_>
    <_>
      <rects>
        <_>
          0 34 2 26 -1.</_>
        <_>
          0 34 1 13 2.</_>
        <_>
          1 47 1 13 2.</_></rects>
      <tilted>0</tilted></_>
    <_>
      <rects>
        <_>
          0 34 2 14 -1.</_>
        <_>
          1 34 1 14 2.</_></rects>
      <tilted>0</tilted></_>
    <_>
      <rects>
        <_>
          0 34 21 10 -1.</_>
        <_>
          7 34 7 10 3.</_></rects>
      <tilted>0</tilted></_>
    <_>
      <rects>
        <_>
          0 35 1 12 -1.</_>
        <_>
          0 38 1 6 2.</_></rects>
      <tilted>0</tilted></_>
    <_>
      <rects>
        <_>
          0 35 2 12 -1.</_>
        <_>
          1 35 1 12 2.</_></rects>
      <tilted>0</tilted></_>
    <_>
      <rects>
        <_>
          1 3 18 1 -1.</_>
        <_>
          10 3 9 1 2.</_></rects>
      <tilted>0</tilted></_>
    <_>
      <rects>
        <_>
          1 36 6 7 -1.</_>
        <_>
          3 36 2 7 3.</_></rects>
      <tilted>0</tilted></_>
    <_>
      <rects>
        <_>
          1 39 3 3 -1.</_>
        <_>
          2 39 1 3 3.</_></rects>
      <tilted>0</tilted></_>
    <_>
      <rects>
        <_>
          1 39 4 5 -1.</_>
        <_>
          2 39 2 5 2.</_></rects>
      <tilted>0</tilted></_>
    <_>
      <rects>
        <_>
          1 40 9 4 -1.</_>
        <_>
          1 41 9 2 2.</_></rects>
      <tilted>0</tilted></_>
    <_>
      <rects>
        <_>
          1 41 3 2 -1.</_>
        <_>
          2 41 1 2 3.</_></rects>
      <tilted>0</tilted></_>
    <_>
      <rects>
        <_>
          1 42 26 3 -1.</_>
        <_>
          1 43 26 1 3.</_></rects>
      <tilted>0</tilted></_>
    <_>
      <rects>
        <_>
          1 43 34 3 -1.</_>
        <_>
          1 44 34 1 3.</_></rects>
      <tilted>0</tilted></_>
    <_>
      <rects>
        <_>
          2 4 12 16 -1.</_>
        <_>
          5 4 6 16 2.</_></rects>
      <tilted>0</tilted></_>
    <_>
      <rects>
        <_>
          2 5 9 14 -1.</_>
        <_>
          5 5 3 14 3.</_></rects>
      <tilted>0</tilted></_>
    <_>
      <rects>
        <_>
          2 31 3 19 -1.</_>
        <_>
          3 31 1 19 3.</_></rects>
      <tilted>0</tilted></_>
    <_>
      <rects>
        <_>
          2 33 18 12 -1.</_>
        <_>
          8 33 6 12 3.</_></rects>
      <tilted>0</tilted></_>
    <_>
      <rects>
        <_>
          2 33 32 1 -1.</_>
        <_>
          18 33 16 1 2.</_></rects>
      <tilted>0</tilted></_>
    <_>
      <rects>
        <_>
          2 34 3 11 -1.</_>
        <_>
          3 34 1 11 3.</_></rects>
      <tilted>0</tilted></_>
    <_>
      <rects>
        <_>
          2 35 1 12 -1.</_>
        <_>
          2 38 1 6 2.</_></rects>
      <tilted>0</tilted></_>
    <_>
      <rects>
        <_>
          2 37 9 1 -1.</_>
        <_>
          5 37 3 1 3.</_></rects>
      <tilted>0</tilted></_>
    <_>
      <rects>
        <_>
          2 38 8 7 -1.</_>
        <_>
          4 38 4 7 2.</_></rects>
      <tilted>0</tilted></_>
    <_>
      <rects>
        <_>
          2 39 3 7 -1.</_>
        <_>
          3 39 1 7 3.</_></rects>
      <tilted>0</tilted></_>
    <_>
      <rects>
        <_>
          2 43 28 1 -1.</_>
        <_>
          2 43 14 1 2.</_></rects>
      <tilted>1</tilted></_>
    <_>
      <rects>
        <_>
          2 74 32 6 -1.</_>
        <_>
          2 77 32 3 2.</_></rects>
      <tilted>0</tilted></_>
    <_>
      <rects>
        <_>
          3 3 12 20 -1.</_>
        <_>
          6 3 6 20 2.</_></rects>
      <tilted>0</tilted></_>
    <_>
      <rects>
        <_>
          3 15 32 16 -1.</_>
        <_>
          11 15 16 16 2.</_></rects>
      <tilted>0</tilted></_>
    <_>
      <rects>
        <_>
          3 16 28 27 -1.</_>
        <_>
          3 25 28 9 3.</_></rects>
      <tilted>0</tilted></_>
    <_>
      <rects>
        <_>
          3 19 24 2 -1.</_>
        <_>
          9 19 12 2 2.</_></rects>
      <tilted>0</tilted></_>
    <_>
      <rects>
        <_>
          3 30 28 2 -1.</_>
        <_>
          10 30 14 2 2.</_></rects>
      <tilted>0</tilted></_>
    <_>
      <rects>
        <_>
          3 31 22 3 -1.</_>
        <_>
          3 32 22 1 3.</_></rects>
      <tilted>0</tilted></_>
    <_>
      <rects>
        <_>
          3 33 29 2 -1.</_>
        <_>
          3 34 29 1 2.</_></rects>
      <tilted>0</tilted></_>
    <_>
      <rects>
        <_>
          3 35 20 4 -1.</_>
        <_>
          13 35 10 4 2.</_></rects>
      <tilted>0</tilted></_>
    <_>
      <rects>
        <_>
          3 36 3 7 -1.</_>
        <_>
          4 36 1 7 3.</_></rects>
      <tilted>0</tilted></_>
    <_>
      <rects>
        <_>
          3 36 7 2 -1.</_>
        <_>
          3 36 7 1 2.</_></rects>
      <tilted>1</tilted></_>
    <_>
      <rects>
        <_>
          3 37 18 2 -1.</_>
        <_>
          9 37 6 2 3.</_></rects>
      <tilted>0</tilted></_>
    <_>
      <rects>
        <_>
          3 37 32 1 -1.</_>
        <_>
          11 37 16 1 2.</_></rects>
      <tilted>0</tilted></_>
    <_>
      <rects>
        <_>
          3 40 9 4 -1.</_>
        <_>
          6 40 3 4 3.</_></rects>
      <tilted>0</tilted></_>
    <_>
      <rects>
        <_>
          3 41 4 2 -1.</_>
        <_>
          3 41 4 1 2.</_></rects>
      <tilted>1</tilted></_>
    <_>
      <rects>
        <_>
          3 43 6 3 -1.</_>
        <_>
          5 44 2 1 9.</_></rects>
      <tilted>0</tilted></_>
    <_>
      <rects>
        <_>
          3 53 21 3 -1.</_>
        <_>
          3 54 21 1 3.</_></rects>
      <tilted>0</tilted></_>
    <_>
      <rects>
        <_>
          4 5 21 18 -1.</_>
        <_>
          4 11 21 6 3.</_></rects>
      <tilted>0</tilted></_>
    <_>
      <rects>
        <_>
          4 30 28 1 -1.</_>
        <_>
          11 30 14 1 2.</_></rects>
      <tilted>0</tilted></_>
    <_>
      <rects>
        <_>
          4 31 24 5 -1.</_>
        <_>
          10 31 12 5 2.</_></rects>
      <tilted>0</tilted></_>
    <_>
      <rects>
        <_>
          4 32 3 19 -1.</_>
        <_>
          5 32 1 19 3.</_></rects>
      <tilted>0</tilted></_>
    <_>
      <rects>
        <_>
          4 34 13 3 -1.</_>
        <_>
          4 35 13 1 3.</_></rects>
      <tilted>0</tilted></_>
    <_>
      <rects>
        <_>
          4 38 3 11 -1.</_>
        <_>
          5 38 1 11 3.</_></rects>
      <tilted>0</tilted></_>
    <_>
      <rects>
        <_>
          4 38 27 3 -1.</_>
        <_>
          4 39 27 1 3.</_></rects>
      <tilted>0</tilted></_>
    <_>
      <rects>
        <_>
          5 0 26 4 -1.</_>
        <_>
          5 1 26 2 2.</_></rects>
      <tilted>0</tilted></_>
    <_>
      <rects>
        <_>
          5 0 27 8 -1.</_>
        <_>
          5 2 27 4 2.</_></rects>
      <tilted>0</tilted></_>
    <_>
      <rects>
        <_>
          5 1 24 6 -1.</_>
        <_>
          5 4 24 3 2.</_></rects>
      <tilted>0</tilted></_>
    <_>
      <rects>
        <_>
          5 8 26 4 -1.</_>
        <_>
          5 9 26 2 2.</_></rects>
      <tilted>0</tilted></_>
    <_>
      <rects>
        <_>
          5 12 22 50 -1.</_>
        <_>
          16 12 11 50 2.</_></rects>
      <tilted>0</tilted></_>
    <_>
      <rects>
        <_>
          5 28 3 3 -1.</_>
        <_>
          6 29 1 1 9.</_></rects>
      <tilted>0</tilted></_>
    <_>
      <rects>
        <_>
          5 30 3 9 -1.</_>
        <_>
          6 30 1 9 3.</_></rects>
      <tilted>0</tilted></_>
    <_>
      <rects>
        <_>
          5 30 22 9 -1.</_>
        <_>
          16 30 11 9 2.</_></rects>
      <tilted>0</tilted></_>
    <_>
      <rects>
        <_>
          5 33 2 16 -1.</_>
        <_>
          6 33 1 16 2.</_></rects>
      <tilted>0</tilted></_>
    <_>
      <rects>
        <_>
          5 34 18 7 -1.</_>
        <_>
          14 34 9 7 2.</_></rects>
      <tilted>0</tilted></_>
    <_>
      <rects>
        <_>
          5 37 15 3 -1.</_>
        <_>
          10 38 5 1 9.</_></rects>
      <tilted>0</tilted></_>
    <_>
      <rects>
        <_>
          5 43 30 3 -1.</_>
        <_>
          5 44 30 1 3.</_></rects>
      <tilted>0</tilted></_>
    <_>
      <rects>
        <_>
          6 26 4 13 -1.</_>
        <_>
          7 26 2 13 2.</_></rects>
      <tilted>0</tilted></_>
    <_>
      <rects>
        <_>
          6 27 15 1 -1.</_>
        <_>
          11 32 5 1 3.</_></rects>
      <tilted>1</tilted></_>
    <_>
      <rects>
        <_>
          6 32 3 4 -1.</_>
        <_>
          7 32 1 4 3.</_></rects>
      <tilted>0</tilted></_>
    <_>
      <rects>
        <_>
          6 35 19 3 -1.</_>
        <_>
          6 36 19 1 3.</_></rects>
      <tilted>0</tilted></_>
    <_>
      <rects>
        <_>
          6 36 3 9 -1.</_>
        <_>
          7 36 1 9 3.</_></rects>
      <tilted>0</tilted></_>
    <_>
      <rects>
        <_>
          6 38 3 7 -1.</_>
        <_>
          7 38 1 7 3.</_></rects>
      <tilted>0</tilted></_>
    <_>
      <rects>
        <_>
          7 0 24 8 -1.</_>
        <_>
          7 2 24 4 2.</_></rects>
      <tilted>0</tilted></_>
    <_>
      <rects>
        <_>
          7 2 17 26 -1.</_>
        <_>
          7 15 17 13 2.</_></rects>
      <tilted>0</tilted></_>
    <_>
      <rects>
        <_>
          7 8 24 3 -1.</_>
        <_>
          13 8 12 3 2.</_></rects>
      <tilted>0</tilted></_>
    <_>
      <rects>
        <_>
          7 21 24 16 -1.</_>
        <_>
          7 25 24 8 2.</_></rects>
      <tilted>0</tilted></_>
    <_>
      <rects>
        <_>
          7 26 24 25 -1.</_>
        <_>
          13 26 12 25 2.</_></rects>
      <tilted>0</tilted></_>
    <_>
      <rects>
        <_>
          7 31 24 2 -1.</_>
        <_>
          13 31 12 2 2.</_></rects>
      <tilted>0</tilted></_>
    <_>
      <rects>
        <_>
          7 31 19 3 -1.</_>
        <_>
          7 32 19 1 3.</_></rects>
      <tilted>0</tilted></_>
    <_>
      <rects>
        <_>
          7 33 4 1 -1.</_>
        <_>
          8 34 2 1 2.</_></rects>
      <tilted>1</tilted></_>
    <_>
      <rects>
        <_>
          8 0 19 12 -1.</_>
        <_>
          8 4 19 4 3.</_></rects>
      <tilted>0</tilted></_>
    <_>
      <rects>
        <_>
          8 22 9 4 -1.</_>
        <_>
          8 23 9 2 2.</_></rects>
      <tilted>0</tilted></_>
    <_>
      <rects>
        <_>
          8 26 13 3 -1.</_>
        <_>
          8 27 13 1 3.</_></rects>
      <tilted>0</tilted></_>
    <_>
      <rects>
        <_>
          8 31 20 12 -1.</_>
        <_>
          13 31 10 12 2.</_></rects>
      <tilted>0</tilted></_>
    <_>
      <rects>
        <_>
          8 31 20 14 -1.</_>
        <_>
          13 31 10 14 2.</_></rects>
      <tilted>0</tilted></_>
    <_>
      <rects>
        <_>
          8 35 2 3 -1.</_>
        <_>
          8 36 2 1 3.</_></rects>
      <tilted>0</tilted></_>
    <_>
      <rects>
        <_>
          8 37 20 3 -1.</_>
        <_>
          8 38 20 1 3.</_></rects>
      <tilted>0</tilted></_>
    <_>
      <rects>
        <_>
          8 38 15 2 -1.</_>
        <_>
          13 38 5 2 3.</_></rects>
      <tilted>0</tilted></_>
    <_>
      <rects>
        <_>
          8 38 6 3 -1.</_>
        <_>
          8 39 6 1 3.</_></rects>
      <tilted>0</tilted></_>
    <_>
      <rects>
        <_>
          8 38 25 3 -1.</_>
        <_>
          8 39 25 1 3.</_></rects>
      <tilted>0</tilted></_>
    <_>
      <rects>
        <_>
          8 40 20 5 -1.</_>
        <_>
          13 40 10 5 2.</_></rects>
      <tilted>0</tilted></_>
    <_>
      <rects>
        <_>
          8 46 18 3 -1.</_>
        <_>
          8 47 18 1 3.</_></rects>
      <tilted>0</tilted></_>
    <_>
      <rects>
        <_>
          8 47 3 3 -1.</_>
        <_>
          7 48 3 1 3.</_></rects>
      <tilted>1</tilted></_>
    <_>
      <rects>
        <_>
          9 0 16 12 -1.</_>
        <_>
          9 3 16 6 2.</_></rects>
      <tilted>0</tilted></_>
    <_>
      <rects>
        <_>
          9 1 6 3 -1.</_>
        <_>
          9 2 6 1 3.</_></rects>
      <tilted>0</tilted></_>
    <_>
      <rects>
        <_>
          9 4 21 21 -1.</_>
        <_>
          9 11 21 7 3.</_></rects>
      <tilted>0</tilted></_>
    <_>
      <rects>
        <_>
          9 4 24 8 -1.</_>
        <_>
          9 8 24 4 2.</_></rects>
      <tilted>0</tilted></_>
    <_>
      <rects>
        <_>
          9 5 5 6 -1.</_>
        <_>
          9 8 5 3 2.</_></rects>
      <tilted>0</tilted></_>
    <_>
      <rects>
        <_>
          9 5 18 10 -1.</_>
        <_>
          9 10 18 5 2.</_></rects>
      <tilted>0</tilted></_>
    <_>
      <rects>
        <_>
          9 19 14 3 -1.</_>
        <_>
          9 20 14 1 3.</_></rects>
      <tilted>0</tilted></_>
    <_>
      <rects>
        <_>
          9 21 16 4 -1.</_>
        <_>
          9 22 16 2 2.</_></rects>
      <tilted>0</tilted></_>
    <_>
      <rects>
        <_>
          9 22 7 3 -1.</_>
        <_>
          9 23 7 1 3.</_></rects>
      <tilted>0</tilted></_>
    <_>
      <rects>
        <_>
          9 29 23 4 -1.</_>
        <_>
          9 29 23 2 2.</_></rects>
      <tilted>1</tilted></_>
    <_>
      <rects>
        <_>
          9 32 4 3 -1.</_>
        <_>
          10 33 2 3 2.</_></rects>
      <tilted>1</tilted></_>
    <_>
      <rects>
        <_>
          9 33 13 3 -1.</_>
        <_>
          9 34 13 1 3.</_></rects>
      <tilted>0</tilted></_>
    <_>
      <rects>
        <_>
          9 35 20 20 -1.</_>
        <_>
          9 45 20 10 2.</_></rects>
      <tilted>0</tilted></_>
    <_>
      <rects>
        <_>
          9 39 12 1 -1.</_>
        <_>
          13 39 4 1 3.</_></rects>
      <tilted>0</tilted></_>
    <_>
      <rects>
        <_>
          9 41 12 2 -1.</_>
        <_>
          13 41 4 2 3.</_></rects>
      <tilted>0</tilted></_>
    <_>
      <rects>
        <_>
          9 49 2 3 -1.</_>
        <_>
          8 50 2 1 3.</_></rects>
      <tilted>1</tilted></_>
    <_>
      <rects>
        <_>
          9 51 7 3 -1.</_>
        <_>
          9 52 7 1 3.</_></rects>
      <tilted>0</tilted></_>
    <_>
      <rects>
        <_>
          9 56 21 10 -1.</_>
        <_>
          16 56 7 10 3.</_></rects>
      <tilted>0</tilted></_>
    <_>
      <rects>
        <_>
          10 0 8 6 -1.</_>
        <_>
          12 2 4 6 2.</_></rects>
      <tilted>1</tilted></_>
    <_>
      <rects>
        <_>
          10 2 14 22 -1.</_>
        <_>
          10 13 14 11 2.</_></rects>
      <tilted>0</tilted></_>
    <_>
      <rects>
        <_>
          10 3 20 18 -1.</_>
        <_>
          10 9 20 6 3.</_></rects>
      <tilted>0</tilted></_>
    <_>
      <rects>
        <_>
          10 3 22 2 -1.</_>
        <_>
          10 4 22 1 2.</_></rects>
      <tilted>0</tilted></_>
    <_>
      <rects>
        <_>
          10 4 8 9 -1.</_>
        <_>
          12 6 4 9 2.</_></rects>
      <tilted>1</tilted></_>
    <_>
      <rects>
        <_>
          10 5 11 24 -1.</_>
        <_>
          10 13 11 8 3.</_></rects>
      <tilted>0</tilted></_>
    <_>
      <rects>
        <_>
          10 29 12 4 -1.</_>
        <_>
          10 29 6 4 2.</_></rects>
      <tilted>1</tilted></_>
    <_>
      <rects>
        <_>
          10 58 21 22 -1.</_>
        <_>
          17 58 7 22 3.</_></rects>
      <tilted>0</tilted></_>
    <_>
      <rects>
        <_>
          11 1 6 6 -1.</_>
        <_>
          13 3 2 6 3.</_></rects>
      <tilted>1</tilted></_>
    <_>
      <rects>
        <_>
          11 7 11 2 -1.</_>
        <_>
          11 8 11 1 2.</_></rects>
      <tilted>0</tilted></_>
    <_>
      <rects>
        <_>
          11 20 4 5 -1.</_>
        <_>
          11 20 2 5 2.</_></rects>
      <tilted>1</tilted></_>
    <_>
      <rects>
        <_>
          11 20 16 10 -1.</_>
        <_>
          15 20 8 10 2.</_></rects>
      <tilted>0</tilted></_>
    <_>
      <rects>
        <_>
          11 30 15 6 -1.</_>
        <_>
          11 32 15 2 3.</_></rects>
      <tilted>0</tilted></_>
    <_>
      <rects>
        <_>
          11 34 8 5 -1.</_>
        <_>
          13 34 4 5 2.</_></rects>
      <tilted>0</tilted></_>
    <_>
      <rects>
        <_>
          11 35 9 1 -1.</_>
        <_>
          14 38 3 1 3.</_></rects>
      <tilted>1</tilted></_>
    <_>
      <rects>
        <_>
          11 39 16 2 -1.</_>
        <_>
          15 39 8 2 2.</_></rects>
      <tilted>0</tilted></_>
    <_>
      <rects>
        <_>
          11 41 4 3 -1.</_>
        <_>
          10 42 4 1 3.</_></rects>
      <tilted>1</tilted></_>
    <_>
      <rects>
        <_>
          11 62 15 3 -1.</_>
        <_>
          11 63 15 1 3.</_></rects>
      <tilted>0</tilted></_>
    <_>
      <rects>
        <_>
          12 4 14 14 -1.</_>
        <_>
          12 11 14 7 2.</_></rects>
      <tilted>0</tilted></_>
    <_>
      <rects>
        <_>
          12 4 20 20 -1.</_>
        <_>
          12 14 20 10 2.</_></rects>
      <tilted>0</tilted></_>
    <_>
      <rects>
        <_>
          12 19 12 12 -1.</_>
        <_>
          16 19 4 12 3.</_></rects>
      <tilted>0</tilted></_>
    <_>
      <rects>
        <_>
          12 37 8 3 -1.</_>
        <_>
          14 37 4 3 2.</_></rects>
      <tilted>0</tilted></_>
    <_>
      <rects>
        <_>
          12 38 8 5 -1.</_>
        <_>
          14 38 4 5 2.</_></rects>
      <tilted>0</tilted></_>
    <_>
      <rects>
        <_>
          12 39 9 2 -1.</_>
        <_>
          15 39 3 2 3.</_></rects>
      <tilted>0</tilted></_>
    <_>
      <rects>
        <_>
          12 41 12 1 -1.</_>
        <_>
          15 41 6 1 2.</_></rects>
      <tilted>0</tilted></_>
    <_>
      <rects>
        <_>
          12 59 21 20 -1.</_>
        <_>
          19 59 7 20 3.</_></rects>
      <tilted>0</tilted></_>
    <_>
      <rects>
        <_>
          13 1 6 5 -1.</_>
        <_>
          15 3 2 5 3.</_></rects>
      <tilted>1</tilted></_>
    <_>
      <rects>
        <_>
          13 5 11 8 -1.</_>
        <_>
          13 7 11 4 2.</_></rects>
      <tilted>0</tilted></_>
    <_>
      <rects>
        <_>
          13 22 22 13 -1.</_>
        <_>
          13 22 11 13 2.</_></rects>
      <tilted>1</tilted></_>
    <_>
      <rects>
        <_>
          13 27 9 8 -1.</_>
        <_>
          16 27 3 8 3.</_></rects>
      <tilted>0</tilted></_>
    <_>
      <rects>
        <_>
          13 35 11 3 -1.</_>
        <_>
          13 36 11 1 3.</_></rects>
      <tilted>0</tilted></_>
    <_>
      <rects>
        <_>
          13 37 8 5 -1.</_>
        <_>
          15 37 4 5 2.</_></rects>
      <tilted>0</tilted></_>
    <_>
      <rects>
        <_>
          13 37 9 3 -1.</_>
        <_>
          16 37 3 3 3.</_></rects>
      <tilted>0</tilted></_>
    <_>
      <rects>
        <_>
          13 38 6 5 -1.</_>
        <_>
          15 38 2 5 3.</_></rects>
      <tilted>0</tilted></_>
    <_>
      <rects>
        <_>
          13 38 12 2 -1.</_>
        <_>
          16 38 6 2 2.</_></rects>
      <tilted>0</tilted></_>
    <_>
      <rects>
        <_>
          14 2 17 6 -1.</_>
        <_>
          14 5 17 3 2.</_></rects>
      <tilted>0</tilted></_>
    <_>
      <rects>
        <_>
          14 5 11 8 -1.</_>
        <_>
          14 9 11 4 2.</_></rects>
      <tilted>0</tilted></_>
    <_>
      <rects>
        <_>
          14 13 17 2 -1.</_>
        <_>
          14 13 17 1 2.</_></rects>
      <tilted>1</tilted></_>
    <_>
      <rects>
        <_>
          14 21 19 10 -1.</_>
        <_>
          14 21 19 5 2.</_></rects>
      <tilted>1</tilted></_>
    <_>
      <rects>
        <_>
          14 37 4 2 -1.</_>
        <_>
          15 37 2 2 2.</_></rects>
      <tilted>0</tilted></_>
    <_>
      <rects>
        <_>
          14 38 3 5 -1.</_>
        <_>
          15 38 1 5 3.</_></rects>
      <tilted>0</tilted></_>
    <_>
      <rects>
        <_>
          14 47 19 2 -1.</_>
        <_>
          14 48 19 1 2.</_></rects>
      <tilted>0</tilted></_>
    <_>
      <rects>
        <_>
          15 26 8 12 -1.</_>
        <_>
          17 26 4 12 2.</_></rects>
      <tilted>0</tilted></_>
    <_>
      <rects>
        <_>
          15 33 6 3 -1.</_>
        <_>
          15 34 6 1 3.</_></rects>
      <tilted>0</tilted></_>
    <_>
      <rects>
        <_>
          15 33 16 1 -1.</_>
        <_>
          23 33 8 1 2.</_></rects>
      <tilted>0</tilted></_>
    <_>
      <rects>
        <_>
          15 35 4 7 -1.</_>
        <_>
          16 35 2 7 2.</_></rects>
      <tilted>0</tilted></_>
    <_>
      <rects>
        <_>
          16 0 1 2 -1.</_>
        <_>
          16 1 1 1 2.</_></rects>
      <tilted>0</tilted></_>
    <_>
      <rects>
        <_>
          16 2 18 6 -1.</_>
        <_>
          16 5 18 3 2.</_></rects>
      <tilted>0</tilted></_>
    <_>
      <rects>
        <_>
          16 19 1 3 -1.</_>
        <_>
          16 20 1 1 3.</_></rects>
      <tilted>0</tilted></_>
    <_>
      <rects>
        <_>
          16 19 11 16 -1.</_>
        <_>
          16 19 11 8 2.</_></rects>
      <tilted>1</tilted></_>
    <_>
      <rects>
        <_>
          16 22 13 4 -1.</_>
        <_>
          16 22 13 2 2.</_></rects>
      <tilted>1</tilted></_>
    <_>
      <rects>
        <_>
          16 34 12 12 -1.</_>
        <_>
          20 34 4 12 3.</_></rects>
      <tilted>0</tilted></_>
    <_>
      <rects>
        <_>
          16 35 10 1 -1.</_>
        <_>
          21 35 5 1 2.</_></rects>
      <tilted>0</tilted></_>
    <_>
      <rects>
        <_>
          16 77 18 3 -1.</_>
        <_>
          25 77 9 3 2.</_></rects>
      <tilted>0</tilted></_>
    <_>
      <rects>
        <_>
          17 8 16 4 -1.</_>
        <_>
          25 8 8 4 2.</_></rects>
      <tilted>0</tilted></_>
    <_>
      <rects>
        <_>
          17 36 12 6 -1.</_>
        <_>
          21 36 4 6 3.</_></rects>
      <tilted>0</tilted></_>
    <_>
      <rects>
        <_>
          17 36 15 12 -1.</_>
        <_>
          22 36 5 12 3.</_></rects>
      <tilted>0</tilted></_>
    <_>
      <rects>
        <_>
          17 37 6 7 -1.</_>
        <_>
          20 37 3 7 2.</_></rects>
      <tilted>0</tilted></_>
    <_>
      <rects>
        <_>
          18 35 2 4 -1.</_>
        <_>
          19 35 1 4 2.</_></rects>
      <tilted>0</tilted></_>
    <_>
      <rects>
        <_>
          19 19 8 3 -1.</_>
        <_>
          19 20 8 1 3.</_></rects>
      <tilted>0</tilted></_>
    <_>
      <rects>
        <_>
          20 3 3 12 -1.</_>
        <_>
          20 7 3 4 3.</_></rects>
      <tilted>0</tilted></_>
    <_>
      <rects>
        <_>
          20 27 12 3 -1.</_>
        <_>
          20 28 12 1 3.</_></rects>
      <tilted>0</tilted></_>
    <_>
      <rects>
        <_>
          21 2 14 2 -1.</_>
        <_>
          21 2 7 1 2.</_>
        <_>
          28 3 7 1 2.</_></rects>
      <tilted>0</tilted></_>
    <_>
      <rects>
        <_>
          22 5 12 15 -1.</_>
        <_>
          26 5 4 15 3.</_></rects>
      <tilted>0</tilted></_>
    <_>
      <rects>
        <_>
          22 25 1 16 -1.</_>
        <_>
          18 29 1 8 2.</_></rects>
      <tilted>1</tilted></_>
    <_>
      <rects>
        <_>
          23 7 12 54 -1.</_>
        <_>
          27 25 4 18 9.</_></rects>
      <tilted>0</tilted></_>
    <_>
      <rects>
        <_>
          25 0 4 14 -1.</_>
        <_>
          25 0 2 7 2.</_>
        <_>
          27 7 2 7 2.</_></rects>
      <tilted>0</tilted></_>
    <_>
      <rects>
        <_>
          25 4 8 17 -1.</_>
        <_>
          29 4 4 17 2.</_></rects>
      <tilted>0</tilted></_>
    <_>
      <rects>
        <_>
          25 44 8 1 -1.</_>
        <_>
          27 46 4 1 2.</_></rects>
      <tilted>1</tilted></_>
    <_>
      <rects>
        <_>
          26 1 8 24 -1.</_>
        <_>
          30 1 4 24 2.</_></rects>
      <tilted>0</tilted></_>
    <_>
      <rects>
        <_>
          26 36 3 3 -1.</_>
        <_>
          27 36 1 3 3.</_></rects>
      <tilted>0</tilted></_>
    <_>
      <rects>
        <_>
          26 37 3 1 -1.</_>
        <_>
          27 37 1 1 3.</_></rects>
      <tilted>0</tilted></_>
    <_>
      <rects>
        <_>
          27 36 3 8 -1.</_>
        <_>
          28 36 1 8 3.</_></rects>
      <tilted>0</tilted></_>
    <_>
      <rects>
        <_>
          28 11 5 56 -1.</_>
        <_>
          28 25 5 28 2.</_></rects>
      <tilted>0</tilted></_>
    <_>
      <rects>
        <_>
          28 34 2 15 -1.</_>
        <_>
          29 34 1 15 2.</_></rects>
      <tilted>0</tilted></_>
    <_>
      <rects>
        <_>
          28 44 6 1 -1.</_>
        <_>
          30 44 2 1 3.</_></rects>
      <tilted>0</tilted></_>
    <_>
      <rects>
        <_>
          29 2 6 8 -1.</_>
        <_>
          27 4 6 4 2.</_></rects>
      <tilted>1</tilted></_>
    <_>
      <rects>
        <_>
          29 30 3 11 -1.</_>
        <_>
          30 30 1 11 3.</_></rects>
      <tilted>0</tilted></_>
    <_>
      <rects>
        <_>
          29 34 3 4 -1.</_>
        <_>
          30 34 1 4 3.</_></rects>
      <tilted>0</tilted></_>
    <_>
      <rects>
        <_>
          29 35 3 7 -1.</_>
        <_>
          30 35 1 7 3.</_></rects>
      <tilted>0</tilted></_>
    <_>
      <rects>
        <_>
          29 36 4 5 -1.</_>
        <_>
          29 36 2 5 2.</_></rects>
      <tilted>1</tilted></_>
    <_>
      <rects>
        <_>
          29 39 6 2 -1.</_>
        <_>
          29 39 3 2 2.</_></rects>
      <tilted>1</tilted></_>
    <_>
      <rects>
        <_>
          29 72 5 8 -1.</_>
        <_>
          29 76 5 4 2.</_></rects>
      <tilted>0</tilted></_>
    <_>
      <rects>
        <_>
          30 0 2 3 -1.</_>
        <_>
          29 1 2 1 3.</_></rects>
      <tilted>1</tilted></_>
    <_>
      <rects>
        <_>
          30 6 4 22 -1.</_>
        <_>
          31 6 2 22 2.</_></rects>
      <tilted>0</tilted></_>
    <_>
      <rects>
        <_>
          30 43 3 2 -1.</_>
        <_>
          31 43 1 2 3.</_></rects>
      <tilted>0</tilted></_>
    <_>
      <rects>
        <_>
          31 1 4 54 -1.</_>
        <_>
          31 1 2 27 2.</_>
        <_>
          33 28 2 27 2.</_></rects>
      <tilted>0</tilted></_>
    <_>
      <rects>
        <_>
          31 7 4 20 -1.</_>
        <_>
          32 7 2 20 2.</_></rects>
      <tilted>0</tilted></_>
    <_>
      <rects>
        <_>
          31 22 4 31 -1.</_>
        <_>
          33 22 2 31 2.</_></rects>
      <tilted>0</tilted></_>
    <_>
      <rects>
        <_>
          31 31 4 19 -1.</_>
        <_>
          32 31 2 19 2.</_></rects>
      <tilted>0</tilted></_>
    <_>
      <rects>
        <_>
          31 32 2 2 -1.</_>
        <_>
          31 32 1 2 2.</_></rects>
      <tilted>1</tilted></_>
    <_>
      <rects>
        <_>
          31 35 3 3 -1.</_>
        <_>
          32 36 1 1 9.</_></rects>
      <tilted>0</tilted></_>
    <_>
      <rects>
        <_>
          31 37 3 3 -1.</_>
        <_>
          32 38 1 1 9.</_></rects>
      <tilted>0</tilted></_>
    <_>
      <rects>
        <_>
          32 31 3 18 -1.</_>
        <_>
          33 31 1 18 3.</_></rects>
      <tilted>0</tilted></_>
    <_>
      <rects>
        <_>
          32 32 3 17 -1.</_>
        <_>
          33 32 1 17 3.</_></rects>
      <tilted>0</tilted></_>
    <_>
      <rects>
        <_>
          32 34 3 2 -1.</_>
        <_>
          33 35 1 2 3.</_></rects>
      <tilted>1</tilted></_>
    <_>
      <rects>
        <_>
          32 38 3 3 -1.</_>
        <_>
          33 39 1 1 9.</_></rects>
      <tilted>0</tilted></_>
    <_>
      <rects>
        <_>
          33 22 2 36 -1.</_>
        <_>
          33 22 1 18 2.</_>
        <_>
          34 40 1 18 2.</_></rects>
      <tilted>0</tilted></_>
    <_>
      <rects>
        <_>
          33 27 2 23 -1.</_>
        <_>
          34 27 1 23 2.</_></rects>
      <tilted>0</tilted></_>
    <_>
      <rects>
        <_>
          33 31 2 6 -1.</_>
        <_>
          33 31 1 3 2.</_>
        <_>
          34 34 1 3 2.</_></rects>
      <tilted>0</tilted></_>
    <_>
      <rects>
        <_>
          33 31 2 21 -1.</_>
        <_>
          34 31 1 21 2.</_></rects>
      <tilted>0</tilted></_>
    <_>
      <rects>
        <_>
          34 24 1 36 -1.</_>
        <_>
          34 36 1 12 3.</_></rects>
      <tilted>0</tilted></_>
    <_>
      <rects>
        <_>
          34 25 1 30 -1.</_>
        <_>
          34 35 1 10 3.</_></rects>
      <tilted>0</tilted></_>
    <_>
      <rects>
        <_>
          34 44 1 3 -1.</_>
        <_>
          33 45 1 1 3.</_></rects>
      <tilted>1</tilted></_></features></cascade>
</opencv_storage>
