<?xml version="1.0"?>
<opencv_storage>
<stage2>
  <maxWeakCount>10</maxWeakCount>
  <stageThreshold>-5.5643618106842041e-01</stageThreshold>
  <weakClassifiers>
    <_>
      <internalNodes>
        0 -1 1784585 4.1193934157490730e-04</internalNodes>
      <leafValues>
        9.1244018077850342e-01 -9.1428571939468384e-01</leafValues></_>
    <_>
      <internalNodes>
        0 -1 1990118 -9.1686584055423737e-03</internalNodes>
      <leafValues>
        8.3303040266036987e-01 -3.2908415794372559e-01</leafValues></_>
    <_>
      <internalNodes>
        0 -1 1872747 1.8201623111963272e-02</internalNodes>
      <leafValues>
        -3.9259773492813110e-01 7.8074032068252563e-01</leafValues></_>
    <_>
      <internalNodes>
        0 -1 184519 5.0324894255027175e-04</internalNodes>
      <leafValues>
        -4.4154477119445801e-01 6.2712681293487549e-01</leafValues></_>
    <_>
      <internalNodes>
        0 -1 1251388 4.3683708645403385e-04</internalNodes>
      <leafValues>
        3.3600148558616638e-01 -8.6091303825378418e-01</leafValues></_>
    <_>
      <internalNodes>
        0 -1 4174630 5.7751894928514957e-04</internalNodes>
      <leafValues>
        -4.7697958350181580e-01 4.8863556981086731e-01</leafValues></_>
    <_>
      <internalNodes>
        0 -1 5779448 -1.8778024241328239e-04</internalNodes>
      <leafValues>
        -8.5911023616790771e-01 2.7460381388664246e-01</leafValues></_>
    <_>
      <internalNodes>
        0 -1 3191990 9.5517042791470885e-04</internalNodes>
      <leafValues>
        -3.9591446518898010e-01 6.8095833063125610e-01</leafValues></_>
    <_>
      <internalNodes>
        0 -1 1551505 8.4682868327945471e-04</internalNodes>
      <leafValues>
        2.7118086814880371e-01 -9.0227115154266357e-01</leafValues></_>
    <_>
      <internalNodes>
        0 -1 2109646 -2.6996517553925514e-02</internalNodes>
      <leafValues>
        9.1669827699661255e-01 -3.1442797183990479e-01</leafValues></_></weakClassifiers></stage2>
</opencv_storage>
