<?xml version="1.0"?>
<opencv_storage>
<stage7>
  <maxWeakCount>12</maxWeakCount>
  <stageThreshold>-1.6365665197372437e-01</stageThreshold>
  <weakClassifiers>
    <_>
      <internalNodes>
        0 -1 1514228 9.1636320576071739e-04</internalNodes>
      <leafValues>
        9.0276455879211426e-01 -7.0370370149612427e-01</leafValues></_>
    <_>
      <internalNodes>
        0 -1 184531 9.4605219783261418e-04</internalNodes>
      <leafValues>
        -1.2750634551048279e-01 8.5380440950393677e-01</leafValues></_>
    <_>
      <internalNodes>
        0 -1 2009824 -7.5212027877569199e-04</internalNodes>
      <leafValues>
        5.4040092229843140e-01 -4.9775481224060059e-01</leafValues></_>
    <_>
      <internalNodes>
        0 -1 3237488 1.0096671991050243e-02</internalNodes>
      <leafValues>
        -2.8634840250015259e-01 7.4312883615493774e-01</leafValues></_>
    <_>
      <internalNodes>
        0 -1 5610744 -4.7169956815196201e-05</internalNodes>
      <leafValues>
        -5.9895855188369751e-01 3.3905157446861267e-01</leafValues></_>
    <_>
      <internalNodes>
        0 -1 184450 3.3543008612468839e-04</internalNodes>
      <leafValues>
        -4.1363272070884705e-01 4.5796957612037659e-01</leafValues></_>
    <_>
      <internalNodes>
        0 -1 2816459 -6.7945476621389389e-03</internalNodes>
      <leafValues>
        8.1823348999023438e-01 -2.7255746722221375e-01</leafValues></_>
    <_>
      <internalNodes>
        0 -1 4471913 2.0415295148268342e-04</internalNodes>
      <leafValues>
        3.2170990109443665e-01 -7.0251631736755371e-01</leafValues></_>
    <_>
      <internalNodes>
        0 -1 2277394 1.0963607928715646e-04</internalNodes>
      <leafValues>
        2.0729063451290131e-01 -7.4538630247116089e-01</leafValues></_>
    <_>
      <internalNodes>
        0 -1 2907201 3.7426319904625416e-03</internalNodes>
      <leafValues>
        -2.9349908232688904e-01 6.7867904901504517e-01</leafValues></_>
    <_>
      <internalNodes>
        0 -1 4655415 -4.2629745439626276e-04</internalNodes>
      <leafValues>
        -7.3605704307556152e-01 2.3005202412605286e-01</leafValues></_>
    <_>
      <internalNodes>
        0 -1 2374670 -1.4796475879848003e-03</internalNodes>
      <leafValues>
        6.5793120861053467e-01 -2.7322649955749512e-01</leafValues></_></weakClassifiers></stage7>
</opencv_storage>
