<?xml version="1.0"?>
<opencv_storage>
<stage11>
  <maxWeakCount>6</maxWeakCount>
  <stageThreshold>-1.6242131590843201e-02</stageThreshold>
  <weakClassifiers>
    <_>
      <internalNodes>
        0 -1 2488860 1.1611013906076550e-03</internalNodes>
      <leafValues>
        8.9123868942260742e-01 -7.8313255310058594e-01</leafValues></_>
    <_>
      <internalNodes>
        0 -1 184526 4.4904131209477782e-04</internalNodes>
      <leafValues>
        -3.6435824632644653e-01 7.9447680711746216e-01</leafValues></_>
    <_>
      <internalNodes>
        0 -1 3572021 -6.1090959934517741e-04</internalNodes>
      <leafValues>
        6.9871050119400024e-01 -4.6290653944015503e-01</leafValues></_>
    <_>
      <internalNodes>
        0 -1 2097750 1.0999009013175964e-02</internalNodes>
      <leafValues>
        -3.2367441058158875e-01 8.6787801980972290e-01</leafValues></_>
    <_>
      <internalNodes>
        0 -1 985767 -3.4162809606641531e-04</internalNodes>
      <leafValues>
        -9.2055463790893555e-01 3.8510137796401978e-01</leafValues></_>
    <_>
      <internalNodes>
        0 -1 2550581 -3.2110372558236122e-03</internalNodes>
      <leafValues>
        -6.6279029846191406e-01 3.7389314174652100e-01</leafValues></_></weakClassifiers></stage11>
</opencv_storage>
