<?xml version="1.0"?>
<opencv_storage>
<stage12>
  <maxWeakCount>14</maxWeakCount>
  <stageThreshold>-3.9153489470481873e-01</stageThreshold>
  <weakClassifiers>
    <_>
      <internalNodes>
        0 -1 477665 -6.1663787346333265e-04</internalNodes>
      <leafValues>
        -8.8235294818878174e-01 9.0378659963607788e-01</leafValues></_>
    <_>
      <internalNodes>
        0 -1 184519 2.6760750915855169e-04</internalNodes>
      <leafValues>
        -2.3943158984184265e-01 7.3517549037933350e-01</leafValues></_>
    <_>
      <internalNodes>
        0 -1 2283525 -3.3008714672178030e-03</internalNodes>
      <leafValues>
        5.1946377754211426e-01 -4.4144380092620850e-01</leafValues></_>
    <_>
      <internalNodes>
        0 -1 2793740 2.5388002395629883e-02</internalNodes>
      <leafValues>
        -2.1960379183292389e-01 8.1614077091217041e-01</leafValues></_>
    <_>
      <internalNodes>
        0 -1 2235412 -1.9359734142199159e-04</internalNodes>
      <leafValues>
        -6.8259513378143311e-01 2.9630997776985168e-01</leafValues></_>
    <_>
      <internalNodes>
        0 -1 13514 -1.0746774263679981e-02</internalNodes>
      <leafValues>
        4.3617334961891174e-01 -3.9860579371452332e-01</leafValues></_>
    <_>
      <internalNodes>
        0 -1 5600397 -1.9174323824699968e-04</internalNodes>
      <leafValues>
        -6.2803494930267334e-01 2.8446999192237854e-01</leafValues></_>
    <_>
      <internalNodes>
        0 -1 5834946 2.8726531309075654e-04</internalNodes>
      <leafValues>
        -2.2987857460975647e-01 7.4989920854568481e-01</leafValues></_>
    <_>
      <internalNodes>
        0 -1 184451 -5.6348874932155013e-04</internalNodes>
      <leafValues>
        8.3771693706512451e-01 -1.6419750452041626e-01</leafValues></_>
    <_>
      <internalNodes>
        0 -1 1019367 -7.4817537097260356e-04</internalNodes>
      <leafValues>
        -7.7400255203247070e-01 2.4431259930133820e-01</leafValues></_>
    <_>
      <internalNodes>
        0 -1 576965 -3.0154008418321609e-03</internalNodes>
      <leafValues>
        5.8542412519454956e-01 -3.4283882379531860e-01</leafValues></_>
    <_>
      <internalNodes>
        0 -1 2522955 2.5628402363508940e-04</internalNodes>
      <leafValues>
        -4.0044525265693665e-01 4.0358141064643860e-01</leafValues></_>
    <_>
      <internalNodes>
        0 -1 3950674 -2.3807804100215435e-03</internalNodes>
      <leafValues>
        -8.8889467716217041e-01 1.9201050698757172e-01</leafValues></_>
    <_>
      <internalNodes>
        0 -1 5815093 4.4805719517171383e-04</internalNodes>
      <leafValues>
        1.1932596564292908e-01 -9.3794816732406616e-01</leafValues></_></weakClassifiers></stage12>
</opencv_storage>
