<?xml version="1.0"?>
<opencv_storage>
<stage15>
  <maxWeakCount>14</maxWeakCount>
  <stageThreshold>-5.7264292240142822e-01</stageThreshold>
  <weakClassifiers>
    <_>
      <internalNodes>
        0 -1 718136 -1.0344774927943945e-03</internalNodes>
      <leafValues>
        -7.3134326934814453e-01 9.0819984674453735e-01</leafValues></_>
    <_>
      <internalNodes>
        0 -1 5030760 3.3673964440822601e-02</internalNodes>
      <leafValues>
        -5.9710692614316940e-02 7.9014849662780762e-01</leafValues></_>
    <_>
      <internalNodes>
        0 -1 184450 4.5427260920405388e-04</internalNodes>
      <leafValues>
        -3.5398298501968384e-01 5.9788030385971069e-01</leafValues></_>
    <_>
      <internalNodes>
        0 -1 733935 4.3284601997584105e-04</internalNodes>
      <leafValues>
        3.0404531955718994e-01 -7.2408378124237061e-01</leafValues></_>
    <_>
      <internalNodes>
        0 -1 3876733 -1.9808835349977016e-03</internalNodes>
      <leafValues>
        4.6335476636886597e-01 -3.5519224405288696e-01</leafValues></_>
    <_>
      <internalNodes>
        0 -1 1777761 1.5409055049531162e-04</internalNodes>
      <leafValues>
        1.9905039668083191e-01 -8.3747929334640503e-01</leafValues></_>
    <_>
      <internalNodes>
        0 -1 4050484 -7.6802505645900965e-04</internalNodes>
      <leafValues>
        4.6026775240898132e-01 -3.5449320077896118e-01</leafValues></_>
    <_>
      <internalNodes>
        0 -1 3603773 6.3797422626521438e-05</internalNodes>
      <leafValues>
        -3.3767691254615784e-01 4.8748567700386047e-01</leafValues></_>
    <_>
      <internalNodes>
        0 -1 5735456 -2.5230663595721126e-05</internalNodes>
      <leafValues>
        -6.2095904350280762e-01 2.5723248720169067e-01</leafValues></_>
    <_>
      <internalNodes>
        0 -1 4939805 -1.5881789149716496e-03</internalNodes>
      <leafValues>
        5.6114143133163452e-01 -3.3267974853515625e-01</leafValues></_>
    <_>
      <internalNodes>
        0 -1 1739234 -1.2550808605737984e-04</internalNodes>
      <leafValues>
        -5.7467734813690186e-01 2.8903552889823914e-01</leafValues></_>
    <_>
      <internalNodes>
        0 -1 1400249 4.4905242975801229e-04</internalNodes>
      <leafValues>
        -2.9915031790733337e-01 5.1956212520599365e-01</leafValues></_>
    <_>
      <internalNodes>
        0 -1 1861603 4.0629324503242970e-03</internalNodes>
      <leafValues>
        -2.1575747430324554e-01 6.4272719621658325e-01</leafValues></_>
    <_>
      <internalNodes>
        0 -1 3864184 -3.9550621295347810e-05</internalNodes>
      <leafValues>
        5.6891542673110962e-01 -2.5167125463485718e-01</leafValues></_></weakClassifiers></stage15>
</opencv_storage>
