<?xml version="1.0"?>
<opencv_storage>
<stage0>
  <maxWeakCount>8</maxWeakCount>
  <stageThreshold>-3.5220471024513245e-01</stageThreshold>
  <weakClassifiers>
    <_>
      <internalNodes>
        0 -1 763918 -1.0087887756526470e-02</internalNodes>
      <leafValues>
        -8.8059699535369873e-01 9.1059046983718872e-01</leafValues></_>
    <_>
      <internalNodes>
        0 -1 2253082 -7.3432037606835365e-03</internalNodes>
      <leafValues>
        8.9361411333084106e-01 -3.1230574846267700e-01</leafValues></_>
    <_>
      <internalNodes>
        0 -1 184524 8.4673787932842970e-04</internalNodes>
      <leafValues>
        -3.7754392623901367e-01 8.5197848081588745e-01</leafValues></_>
    <_>
      <internalNodes>
        0 -1 1970862 -7.0673907175660133e-03</internalNodes>
      <leafValues>
        -8.0805295705795288e-01 4.6833223104476929e-01</leafValues></_>
    <_>
      <internalNodes>
        0 -1 3489584 7.4995527975261211e-03</internalNodes>
      <leafValues>
        -3.6538487672805786e-01 8.4976321458816528e-01</leafValues></_>
    <_>
      <internalNodes>
        0 -1 3197573 -2.4061417207121849e-04</internalNodes>
      <leafValues>
        6.0309952497482300e-01 -4.1264566779136658e-01</leafValues></_>
    <_>
      <internalNodes>
        0 -1 3188887 7.3410623008385301e-04</internalNodes>
      <leafValues>
        -4.2035165429115295e-01 6.7338919639587402e-01</leafValues></_>
    <_>
      <internalNodes>
        0 -1 2266428 6.6492830228526145e-05</internalNodes>
      <leafValues>
        3.3974879980087280e-01 -8.3254897594451904e-01</leafValues></_></weakClassifiers></stage0>
</opencv_storage>
