<?xml version="1.0"?>
<opencv_storage>
<stage10>
  <maxWeakCount>7</maxWeakCount>
  <stageThreshold>-2.1961747109889984e-01</stageThreshold>
  <weakClassifiers>
    <_>
      <internalNodes>
        0 -1 3778665 -6.2155933119356632e-04</internalNodes>
      <leafValues>
        -1. 9.3162065744400024e-01</leafValues></_>
    <_>
      <internalNodes>
        0 -1 2940485 4.1646760655567050e-04</internalNodes>
      <leafValues>
        7.5801157951354980e-01 -6.9343656301498413e-01</leafValues></_>
    <_>
      <internalNodes>
        0 -1 5834209 -4.1892548324540257e-04</internalNodes>
      <leafValues>
        7.1460336446762085e-01 -4.3118950724601746e-01</leafValues></_>
    <_>
      <internalNodes>
        0 -1 2850270 1.4421553350985050e-02</internalNodes>
      <leafValues>
        -3.4028270840644836e-01 7.7241694927215576e-01</leafValues></_>
    <_>
      <internalNodes>
        0 -1 5593382 1.0753110982477665e-03</internalNodes>
      <leafValues>
        4.3591064214706421e-01 -7.1629577875137329e-01</leafValues></_>
    <_>
      <internalNodes>
        0 -1 184526 8.8507495820522308e-04</internalNodes>
      <leafValues>
        -5.2537161111831665e-01 6.0294032096862793e-01</leafValues></_>
    <_>
      <internalNodes>
        0 -1 1290557 3.0468381009995937e-04</internalNodes>
      <leafValues>
        3.4640207886695862e-01 -7.0956802368164062e-01</leafValues></_></weakClassifiers></stage10>
</opencv_storage>
