<?xml version="1.0"?>
<opencv_storage>
<stage9>
  <maxWeakCount>7</maxWeakCount>
  <stageThreshold>9.1040536761283875e-02</stageThreshold>
  <weakClassifiers>
    <_>
      <internalNodes>
        0 -1 1774867 -1.8378248205408454e-04</internalNodes>
      <leafValues>
        -8.8505744934082031e-01 9.3492156267166138e-01</leafValues></_>
    <_>
      <internalNodes>
        0 -1 141551 1.7595258541405201e-03</internalNodes>
      <leafValues>
        -2.5461006164550781e-01 8.2204991579055786e-01</leafValues></_>
    <_>
      <internalNodes>
        0 -1 5780815 5.7091543567366898e-05</internalNodes>
      <leafValues>
        5.5031704902648926e-01 -7.1984565258026123e-01</leafValues></_>
    <_>
      <internalNodes>
        0 -1 1866875 -2.0529825240373611e-02</internalNodes>
      <leafValues>
        8.1400901079177856e-01 -4.5109397172927856e-01</leafValues></_>
    <_>
      <internalNodes>
        0 -1 1335803 1.8976464867591858e-02</internalNodes>
      <leafValues>
        -3.0225074291229248e-01 8.6618399620056152e-01</leafValues></_>
    <_>
      <internalNodes>
        0 -1 184519 1.5927774074953049e-04</internalNodes>
      <leafValues>
        -6.9138079881668091e-01 4.7790905833244324e-01</leafValues></_>
    <_>
      <internalNodes>
        0 -1 3180256 4.5294077135622501e-03</internalNodes>
      <leafValues>
        -5.6350111961364746e-01 4.9864023923873901e-01</leafValues></_></weakClassifiers></stage9>
</opencv_storage>
