<?xml version="1.0"?>
<opencv_storage>
<stage4>
  <maxWeakCount>12</maxWeakCount>
  <stageThreshold>-1.7884901165962219e-01</stageThreshold>
  <weakClassifiers>
    <_>
      <internalNodes>
        0 -1 2506149 2.7022838592529297e-02</internalNodes>
      <leafValues>
        9.1067588329315186e-01 -1.</leafValues></_>
    <_>
      <internalNodes>
        0 -1 188444 2.3516456712968647e-04</internalNodes>
      <leafValues>
        -2.8694665431976318e-01 8.2514446973800659e-01</leafValues></_>
    <_>
      <internalNodes>
        0 -1 727418 3.1189459841698408e-03</internalNodes>
      <leafValues>
        -4.8739853501319885e-01 5.9097868204116821e-01</leafValues></_>
    <_>
      <internalNodes>
        0 -1 1273487 -1.2547380174510181e-04</internalNodes>
      <leafValues>
        -7.5259685516357422e-01 3.5676565766334534e-01</leafValues></_>
    <_>
      <internalNodes>
        0 -1 3061046 1.3392399996519089e-02</internalNodes>
      <leafValues>
        -4.1861328482627869e-01 5.7001715898513794e-01</leafValues></_>
    <_>
      <internalNodes>
        0 -1 5813375 -1.9022710330318660e-04</internalNodes>
      <leafValues>
        -8.1343841552734375e-01 2.6945701241493225e-01</leafValues></_>
    <_>
      <internalNodes>
        0 -1 1352741 9.3836133601143956e-04</internalNodes>
      <leafValues>
        -3.2388079166412354e-01 6.3413381576538086e-01</leafValues></_>
    <_>
      <internalNodes>
        0 -1 5749829 -3.7273271009325981e-03</internalNodes>
      <leafValues>
        6.4038240909576416e-01 -3.0598774552345276e-01</leafValues></_>
    <_>
      <internalNodes>
        0 -1 115453 -3.6572252865880728e-03</internalNodes>
      <leafValues>
        6.9029831886291504e-01 -3.0393344163894653e-01</leafValues></_>
    <_>
      <internalNodes>
        0 -1 159460 -2.3696697317063808e-03</internalNodes>
      <leafValues>
        7.5130248069763184e-01 -2.5095257163047791e-01</leafValues></_>
    <_>
      <internalNodes>
        0 -1 2492790 5.5643438827246428e-04</internalNodes>
      <leafValues>
        2.3310725390911102e-01 -9.1403609514236450e-01</leafValues></_>
    <_>
      <internalNodes>
        0 -1 3185935 7.9231930430978537e-04</internalNodes>
      <leafValues>
        -3.6541789770126343e-01 5.4398894309997559e-01</leafValues></_></weakClassifiers></stage4>
</opencv_storage>
