<?xml version="1.0"?>
<opencv_storage>
<stage3>
  <maxWeakCount>7</maxWeakCount>
  <stageThreshold>-2.0724144577980042e-01</stageThreshold>
  <weakClassifiers>
    <_>
      <internalNodes>
        0 -1 2023225 1.9776946282945573e-04</internalNodes>
      <leafValues>
        9.4090199470520020e-01 -8.4905660152435303e-01</leafValues></_>
    <_>
      <internalNodes>
        0 -1 594788 5.5174950510263443e-02</internalNodes>
      <leafValues>
        -5.0179505348205566e-01 8.3601731061935425e-01</leafValues></_>
    <_>
      <internalNodes>
        0 -1 184524 6.6987797617912292e-04</internalNodes>
      <leafValues>
        -5.2211594581604004e-01 7.4051070213317871e-01</leafValues></_>
    <_>
      <internalNodes>
        0 -1 2506578 1.1302571510896087e-04</internalNodes>
      <leafValues>
        4.5896056294441223e-01 -8.5544335842132568e-01</leafValues></_>
    <_>
      <internalNodes>
        0 -1 4179396 1.5853783115744591e-03</internalNodes>
      <leafValues>
        -4.8351243138313293e-01 7.0424729585647583e-01</leafValues></_>
    <_>
      <internalNodes>
        0 -1 2382468 2.3441396653652191e-02</internalNodes>
      <leafValues>
        -3.5909301042556763e-01 8.3264732360839844e-01</leafValues></_>
    <_>
      <internalNodes>
        0 -1 5673979 1.6880284238141030e-04</internalNodes>
      <leafValues>
        3.8207599520683289e-01 -8.4266328811645508e-01</leafValues></_></weakClassifiers></stage3>
</opencv_storage>
